340 200
and 0.06800135 -0.023407826 0.031001301 0.07046546 0.13825962 -0.16711868 0.0043519232 0.18695673 -0.038395673 0.08907529 -0.06061415 -0.09764784 0.0073193447 0.13716711 -0.049248047 -0.14275509 -0.06794878 0.082231276 0.05092435 -0.2129217 0.062082164 -0.09723861 -0.00084734283 0.020526912 0.033665806 -0.10692728 -0.07117421 -0.10940361 -0.11324352 0.10515899 0.17553943 0.028068075 0.04312786 0.05715943 -0.058561195 0.08690964 0.100891374 -0.055740103 -0.04047464 -0.19801344 -0.06959557 0.007236116 -0.07847217 0.038745552 0.24101824 -0.017242974 -0.08904017 -0.04243115 0.104079776 0.047858663 0.021737806 -0.115548864 -0.1291735 -0.08170007 0.008053905 -0.024301864 0.02752631 -0.14846893 -0.17872985 -0.075109355 -0.063123435 -0.03550514 -0.05612497 -0.0621025 -0.2305015 0.010645991 -0.0005044502 0.15564609 -0.21408321 0.15676501 0.01989522 0.009582761 0.15441601 0.042588778 0.038626418 0.045893524 0.12630358 -0.1217302 -0.26955184 0.036437716 -0.036479034 -0.13638589 -0.16610652 0.26948616 -0.1235566 0.0017314468 -0.05800151 0.15502998 0.029551908 -0.03205548 0.08199207 0.12287912 0.015628872 0.15896828 0.24975275 0.17236796 0.042659495 -0.028064372 0.07845466 0.076835476 -0.11886932 0.21039274 0.12292483 -0.07129944 -0.14500293 -0.18070401 0.11175307 0.22721556 -0.047209576 -0.16831514 -0.022165254 -0.21027757 -0.048118714 -0.10725139 0.080645576 -0.012690282 0.08968746 -0.24922812 -0.005355259 -0.17521672 -0.027797459 0.23323557 0.108798034 -0.1316501 -0.09579984 0.12130381 -0.11684709 -0.09908677 -0.03219847 -0.010576896 0.15679063 0.12442021 -0.043899786 -0.046885435 -0.10141239 0.19832465 -0.13719827 -0.16563721 -0.124190025 -0.15231188 0.19266711 -0.14713214 -0.08497085 -0.10362705 -0.07276109 -0.089328796 -0.058043037 0.03381881 0.03367942 -2.0636974e-06 0.045971096 -0.16314402 0.036812928 0.09909085 -0.22664896 0.18868928 0.11358903 0.08121168 -0.04944328 0.08468381 0.13866587 0.018335272 -0.06890965 -0.02494409 -0.035039652 0.1208561 0.12641358 -0.09992057 -0.061349917 0.06587635 -0.11368039 0.03557911 -0.021088634 -0.039589126 0.10400119 0.07074194 -0.15729144 0.014309229 0.07590214 0.10172983 -0.041226957 -0.0021997052 0.016439445 -0.008645595 0.05878761 0.1139867 -0.04670938 0.096523054 0.23262821 0.021577172 0.15481201 -0.016575001 -0.063589126 -0.14481957 0.05739053 0.030834882 0.034888048 -0.24925688 -0.0011182533 -0.02084792
to 0.07732996 -0.025279017 0.028329711 0.072958775 0.16389066 -0.17961133 -0.0008769837 0.20558293 -0.043719977 0.10509731 -0.07441321 -0.11004833 0.015161364 0.15096356 -0.049196366 -0.1609467 -0.07544063 0.09634607 0.05706128 -0.23582298 0.061507545 -0.114277594 -0.0062846993 0.018217707 0.03766683 -0.120110594 -0.07492228 -0.12274049 -0.12593308 0.12181434 0.20415527 0.028730879 0.038700003 0.067188725 -0.06886392 0.09717394 0.10811119 -0.057719287 -0.044697754 -0.21898386 -0.07533042 0.0060181534 -0.08290904 0.049528476 0.2724495 -0.017104313 -0.09452333 -0.054443568 0.11200427 0.04832529 0.029250005 -0.13292776 -0.14561252 -0.096356854 -0.0001464028 -0.027328108 0.027675977 -0.16433677 -0.20117395 -0.09126813 -0.067586035 -0.0415956 -0.055854425 -0.06395509 -0.26098084 0.014808247 0.004084399 0.17358275 -0.24159648 0.17827351 0.021591647 0.008376785 0.17554402 0.054173496 0.039227173 0.05535457 0.14218372 -0.13330406 -0.30145997 0.04547918 -0.039059848 -0.15874785 -0.19328903 0.2971918 -0.13455632 -0.002256688 -0.0696159 0.17204575 0.039539482 -0.040214457 0.08898411 0.14005893 0.020340677 0.17605543 0.2777384 0.19262771 0.055880886 -0.027044255 0.09094631 0.07852875 -0.13133173 0.2380094 0.13425426 -0.08406695 -0.16517806 -0.1991798 0.12491503 0.25366932 -0.04781854 -0.1888989 -0.019792723 -0.22755878 -0.048976105 -0.12701014 0.09281246 -0.019452184 0.101104915 -0.28550217 -0.007832554 -0.19190869 -0.03169872 0.26229113 0.12165032 -0.13692585 -0.11661503 0.13515523 -0.12508324 -0.11126249 -0.033738576 -0.0153182335 0.1701541 0.13950334 -0.052133888 -0.050873928 -0.113881856 0.22437724 -0.15245053 -0.19213118 -0.14891315 -0.17048803 0.21240579 -0.1585624 -0.08637007 -0.117507584 -0.075753435 -0.10347642 -0.0667641 0.037976194 0.03534852 -0.002077365 0.048853848 -0.17682715 0.03711315 0.10419237 -0.2559311 0.20639063 0.12254621 0.09194532 -0.051892716 0.08738394 0.16042064 0.021125345 -0.07041168 -0.024889791 -0.03951564 0.12884869 0.13641132 -0.10425986 -0.073509626 0.06516881 -0.12277849 0.04357476 -0.027135963 -0.04311746 0.1147293 0.08043214 -0.17433712 0.02052721 0.079166494 0.11672651 -0.04256047 -0.0017485461 0.017712377 -0.0045867865 0.06441371 0.1271232 -0.04745567 0.11617871 0.25698912 0.022456063 0.16886443 -0.018377762 -0.07295287 -0.15890086 0.06994553 0.032992933 0.039197944 -0.28114766 0.0028903377 -0.028985603
the 0.07652015 -0.02769629 0.028977754 0.07574528 0.16722015 -0.18746768 0.0025120594 0.21354127 -0.043616164 0.10980792 -0.07757545 -0.11101926 0.007180077 0.15671833 -0.057387713 -0.16679026 -0.08338735 0.0983867 0.067688234 -0.24531084 0.06855333 -0.121576756 9.540562e-05 0.028627763 0.034001857 -0.122269295 -0.08253882 -0.12767807 -0.13179371 0.124155216 0.2121984 0.035810582 0.04357089 0.067096725 -0.062160596 0.099625185 0.11146261 -0.06052259 -0.04790558 -0.22675128 -0.07444938 0.0014708797 -0.09086191 0.052624144 0.28426424 -0.024158819 -0.09801422 -0.05563768 0.12159788 0.046888035 0.03180938 -0.13468781 -0.14275917 -0.09877534 0.003912109 -0.028913908 0.025347244 -0.17294562 -0.20749003 -0.09626527 -0.069765314 -0.04523289 -0.061528474 -0.06636727 -0.2699446 0.009452513 0.005329811 0.18231195 -0.25099713 0.1868883 0.017507704 0.0090296855 0.17895655 0.057562962 0.04373431 0.05698462 0.14194113 -0.13676812 -0.30830604 0.043116864 -0.045326322 -0.16474661 -0.19563542 0.30871624 -0.14461346 -0.0027400414 -0.06607764 0.18372066 0.031970054 -0.04432528 0.09696229 0.14002371 0.018305322 0.1826668 0.2863889 0.19275962 0.058314268 -0.026061302 0.09054095 0.08686487 -0.13626523 0.24316354 0.14055559 -0.091123596 -0.17838734 -0.20645235 0.13059042 0.261914 -0.056424327 -0.19669114 -0.028640488 -0.24099094 -0.056934107 -0.13326171 0.09012303 -0.023122428 0.09782538 -0.29711813 -0.0056191194 -0.20491894 -0.038753226 0.2741399 0.12649512 -0.14369878 -0.12044095 0.13690369 -0.13174076 -0.12326531 -0.035758846 -0.01230903 0.17993921 0.1432853 -0.052994706 -0.055578247 -0.1211827 0.23402041 -0.16009083 -0.19425207 -0.14876819 -0.18359904 0.22520705 -0.17192906 -0.09719248 -0.121670865 -0.08333704 -0.11136672 -0.07134615 0.04530095 0.03822571 -0.0024372675 0.049575623 -0.1892968 0.04763873 0.117997855 -0.2689657 0.21667057 0.13080272 0.08602665 -0.060984485 0.089175954 0.17139985 0.018699307 -0.072687745 -0.030011466 -0.042114843 0.13909848 0.14303026 -0.111535765 -0.08023943 0.06850132 -0.12892404 0.051551484 -0.022867886 -0.04763262 0.12032926 0.09144736 -0.18387662 0.018997788 0.084637985 0.12223535 -0.037746035 -0.008716468 0.018749274 -0.011342423 0.06784271 0.12989385 -0.056705154 0.122869946 0.267713 0.030229291 0.1845009 -0.014325623 -0.08016377 -0.16539167 0.07314028 0.037033934 0.036867715 -0.29305363 0.0057408838 -0.030061994
Data 0.057950415 -0.02114069 0.021855766 0.0521838 0.11079486 -0.1270611 0.0036013245 0.1431347 -0.029076366 0.07009419 -0.04738355 -0.07561706 0.0065721083 0.10970576 -0.039433073 -0.11050908 -0.04923016 0.06741431 0.04366378 -0.16730236 0.046414986 -0.07953257 0.0017954219 0.016229255 0.024351005 -0.08075895 -0.056162067 -0.09073111 -0.08602635 0.081588976 0.14355934 0.027488213 0.0281497 0.049393892 -0.047882657 0.069825485 0.07177618 -0.046529718 -0.035080314 -0.15720777 -0.04633515 0.0013697523 -0.053502064 0.028200988 0.19073077 -0.008266154 -0.07042448 -0.041987963 0.07745188 0.03194926 0.01949409 -0.09680073 -0.1031942 -0.06265755 -0.0016711442 -0.02214771 0.018491719 -0.118000306 -0.14210787 -0.0671823 -0.048653714 -0.029404532 -0.0386925 -0.044626325 -0.18152224 0.010884524 -0.0040659434 0.116500415 -0.16976117 0.11969802 0.012334818 0.008049744 0.11923559 0.039207157 0.032455634 0.032497387 0.09860213 -0.09130835 -0.21068813 0.035225872 -0.024819015 -0.11055361 -0.13602595 0.20917791 -0.09549971 -0.0022721812 -0.04184365 0.11950843 0.021444589 -0.02788607 0.06115949 0.09617434 0.008791999 0.12417568 0.19135807 0.13301866 0.041236527 -0.021356542 0.059479386 0.060015947 -0.08517411 0.1605173 0.09917451 -0.053914513 -0.119791426 -0.13790299 0.08851043 0.17245217 -0.038143694 -0.13205034 -0.017507786 -0.16016223 -0.032367345 -0.08804683 0.06192418 -0.010908541 0.07050976 -0.19703454 -0.005446734 -0.14107153 -0.023669606 0.18732406 0.08257753 -0.10408138 -0.081887625 0.09639039 -0.09118028 -0.076078996 -0.027104745 -0.0065555493 0.11552217 0.099796556 -0.034395073 -0.037703954 -0.08227133 0.15268436 -0.11122393 -0.13231088 -0.10491775 -0.12179344 0.15140878 -0.113293566 -0.06374733 -0.079262525 -0.051361784 -0.07696531 -0.05245366 0.026845641 0.030589184 -0.0011778994 0.028275395 -0.124728546 0.034293532 0.07229677 -0.17901027 0.14860772 0.07952572 0.062183958 -0.0378943 0.0663563 0.11664989 0.01130214 -0.05351077 -0.011904277 -0.027610224 0.095488705 0.09046476 -0.07097052 -0.05172213 0.045272537 -0.0856541 0.032371745 -0.015861154 -0.03465194 0.078621395 0.05897543 -0.11570919 0.009363826 0.0586401 0.07645827 -0.032282807 -0.0036531263 0.0068756547 -0.0020593524 0.045863 0.088438496 -0.03314308 0.08443861 0.18451709 0.01786472 0.1219307 -0.014457397 -0.055084243 -0.106957644 0.04477112 0.022234533 0.02374026 -0.19645019 0.004951633 -0.019926704
for 0.052862693 -0.01591395 0.02590058 0.060088653 0.122884125 -0.13562635 0.0054280614 0.1512082 -0.032886937 0.07826585 -0.051806834 -0.08368321 0.013388976 0.11067089 -0.03455541 -0.11803844 -0.061937068 0.06681867 0.04237232 -0.17587012 0.049468666 -0.07943027 0.0010735453 0.013067747 0.02776321 -0.087806344 -0.06039041 -0.099202074 -0.091709025 0.08504488 0.15383846 0.021817604 0.03421819 0.05573276 -0.04781629 0.07644982 0.080492675 -0.04153086 -0.032222364 -0.16793336 -0.0553953 0.0055377623 -0.062173907 0.033907928 0.20201696 -0.016143596 -0.07073453 -0.037513323 0.083620615 0.03449061 0.021524854 -0.098562814 -0.10665804 -0.07102682 0.0051899236 -0.0196034 0.022672204 -0.12102834 -0.14509779 -0.07056015 -0.055378485 -0.031906266 -0.040458042 -0.04956728 -0.19793214 0.0076330127 -0.002244935 0.13066758 -0.18315731 0.1321894 0.009880667 0.0055638757 0.13310382 0.043418206 0.026820047 0.035374735 0.09964246 -0.10532033 -0.22963491 0.033298027 -0.030366782 -0.11902499 -0.13801101 0.22399333 -0.09850818 0.001807048 -0.050109006 0.12809482 0.025670925 -0.027798964 0.06520013 0.10388102 0.012649915 0.13222381 0.21057837 0.14671633 0.041177858 -0.0161146 0.068290636 0.05882293 -0.09807284 0.17149277 0.09725628 -0.058413047 -0.12650934 -0.15214184 0.09032109 0.19025894 -0.039692026 -0.14085555 -0.01716731 -0.17349398 -0.038535066 -0.092279315 0.064739816 -0.009270628 0.074613355 -0.2174384 0.00010082438 -0.15008163 -0.024283214 0.19924343 0.08528719 -0.10817428 -0.07906873 0.09837163 -0.099183254 -0.0801805 -0.027412318 -0.0140608065 0.13155419 0.10805273 -0.034681156 -0.032827564 -0.091316365 0.16763584 -0.11645546 -0.1391997 -0.10722813 -0.12897453 0.15978892 -0.1169533 -0.06900777 -0.089141056 -0.059771456 -0.07754104 -0.053353775 0.032434206 0.029294351 0.0024868555 0.036639214 -0.12851448 0.030313333 0.0858566 -0.18742737 0.15045133 0.08846163 0.0641937 -0.038727257 0.06723829 0.11854009 0.017033838 -0.05096998 -0.018891102 -0.0336716 0.09638345 0.10035102 -0.0867161 -0.05343112 0.050235823 -0.09240973 0.03706569 -0.02193041 -0.041166596 0.088686176 0.05843117 -0.12750351 0.010689353 0.06500169 0.08772823 -0.028858718 -0.0052847113 0.010870185 -0.0009383371 0.049898643 0.09314562 -0.04269728 0.085821696 0.19701596 0.023010623 0.12447327 -0.009226247 -0.05201646 -0.114736386 0.053607114 0.020404616 0.022337366 -0.20510484 0.007442166 -0.017391104
a 0.06281476 -0.02097221 0.028086025 0.050805613 0.116872646 -0.14239772 -0.00083791686 0.1574083 -0.032067787 0.07270815 -0.049827673 -0.084370725 0.0140763465 0.11079824 -0.038132634 -0.117498845 -0.058438946 0.06751861 0.048957016 -0.1812481 0.047813237 -0.08657176 0.0013995778 0.01525508 0.0225452 -0.08710045 -0.060345374 -0.09664674 -0.08928555 0.09306896 0.15024517 0.025161404 0.036986075 0.05554628 -0.044877023 0.07698701 0.0836129 -0.046514753 -0.037636984 -0.16596133 -0.055682134 0.0036213528 -0.06603842 0.03867039 0.20099466 -0.01861891 -0.07416804 -0.040379226 0.0827621 0.03739838 0.019055275 -0.10022549 -0.11203215 -0.06850883 0.005021414 -0.017947435 0.018457608 -0.123485 -0.14679253 -0.06578668 -0.057064086 -0.0330087 -0.04540817 -0.047937177 -0.20040798 0.010100012 -0.004809859 0.12518434 -0.17909358 0.13080442 0.016737293 0.009168554 0.13048986 0.044997357 0.031628158 0.04361915 0.10760823 -0.10741497 -0.23002456 0.039126027 -0.027707696 -0.11235507 -0.13952133 0.2307104 -0.10792436 0.003204391 -0.053986825 0.13535932 0.029674597 -0.027924912 0.07323094 0.10459745 0.011159559 0.13717313 0.2047771 0.14402673 0.044477813 -0.024558958 0.06797005 0.057720594 -0.09155457 0.18062238 0.10287811 -0.06035659 -0.12549627 -0.15364309 0.09346468 0.1926399 -0.04143212 -0.14285901 -0.016328905 -0.17364457 -0.03923375 -0.09537239 0.06978858 -0.016699564 0.07199218 -0.21765274 -0.0061819553 -0.1532121 -0.027291201 0.19537304 0.089490935 -0.11202693 -0.0897935 0.0971183 -0.0997103 -0.082380414 -0.024786927 -0.011568448 0.12799974 0.10383362 -0.036506187 -0.037922014 -0.087640725 0.16755015 -0.11874726 -0.14372635 -0.11450927 -0.13570075 0.15612295 -0.12282714 -0.06727189 -0.08409418 -0.06149906 -0.08106071 -0.046625398 0.030493224 0.026554814 0.0035475618 0.036615297 -0.13772075 0.03465361 0.08520512 -0.19611776 0.15689388 0.09242706 0.06899121 -0.04265948 0.06643886 0.12217188 0.014056999 -0.055854034 -0.019513251 -0.035840478 0.104294136 0.10819755 -0.078076415 -0.060273476 0.054621395 -0.096620195 0.039971996 -0.01847912 -0.033504315 0.089178614 0.066838615 -0.1341086 0.016311103 0.06039321 0.08550296 -0.03216274 0.0015035677 0.008245168 -0.005327117 0.053571787 0.09863462 -0.04282074 0.082253516 0.20041639 0.024555175 0.13318725 -0.015524687 -0.060193814 -0.11705856 0.052999806 0.021612104 0.023104222 -0.21202278 0.00044055475 -0.020530391
in 0.059008833 -0.023677194 0.029821275 0.0531339 0.12795772 -0.14062044 -0.0005713332 0.16545622 -0.026323592 0.07716591 -0.059972968 -0.08912954 0.003912288 0.116689734 -0.04471493 -0.12873323 -0.06076595 0.07349285 0.051875774 -0.18497287 0.048979316 -0.08794653 -0.0035833823 0.02193604 0.026709225 -0.08933006 -0.06673998 -0.09418144 -0.09774968 0.09892832 0.15406048 0.026654564 0.033444744 0.053700503 -0.052543648 0.07211005 0.081326514 -0.050669473 -0.03448848 -0.1710973 -0.0575044 0.008306095 -0.06631202 0.035021454 0.20716274 -0.020213632 -0.07057815 -0.044361632 0.0866597 0.040571034 0.025937067 -0.1067647 -0.110607386 -0.07541936 0.0039774105 -0.021339064 0.020339254 -0.12646332 -0.15103354 -0.06709754 -0.059494983 -0.03316659 -0.043612443 -0.04996986 -0.20463955 0.00783077 0.004643016 0.1332045 -0.19182846 0.13779652 0.018348116 0.0077585145 0.13791247 0.038573276 0.03219528 0.040028922 0.11007219 -0.109898224 -0.2395358 0.03618085 -0.03565708 -0.1178087 -0.14886653 0.2391412 -0.10889774 0.0004389613 -0.049021136 0.1359233 0.02516332 -0.030671345 0.072627895 0.10627007 0.015627313 0.13554774 0.21708553 0.14947502 0.045956675 -0.018775865 0.07157925 0.068500906 -0.105323344 0.18842472 0.101903915 -0.06737602 -0.13375634 -0.1583666 0.093675256 0.19291617 -0.04235219 -0.14562482 -0.02162011 -0.17732975 -0.044628985 -0.099519335 0.07492821 -0.010902409 0.08033238 -0.22014406 -0.002750215 -0.1565828 -0.022932578 0.20862947 0.09594389 -0.107476465 -0.083205216 0.109325044 -0.10565666 -0.093200654 -0.026102457 -0.009136467 0.13702765 0.1134881 -0.033890307 -0.041421354 -0.08743468 0.17101154 -0.12752046 -0.14365278 -0.112690136 -0.13925919 0.16391285 -0.1286426 -0.06785017 -0.08890328 -0.06415145 -0.086118564 -0.055810798 0.030798797 0.0319526 -0.001912012 0.036813136 -0.13880418 0.028972393 0.08637676 -0.19948067 0.16345094 0.09801257 0.0672104 -0.044737455 0.07451072 0.12907583 0.018106325 -0.05584527 -0.014538451 -0.027807103 0.103886455 0.112009205 -0.083091095 -0.05496355 0.0542606 -0.09974332 0.03330912 -0.024919363 -0.035966773 0.09560423 0.06980901 -0.13640605 0.017222142 0.06643599 0.08911713 -0.030628284 -0.0066608028 0.01636796 -0.0018481076 0.05243575 0.10335899 -0.0362638 0.09314144 0.20245238 0.01782946 0.14025187 -0.010184603 -0.055904485 -0.124538444 0.048384573 0.023454322 0.031955864 -0.21999174 -0.00040229032 -0.0148441475
are 0.047654327 -0.0103810765 0.018020064 0.03733092 0.09390352 -0.105106674 0.004000537 0.117764816 -0.01774673 0.052390177 -0.035860974 -0.06613624 0.0027906562 0.07985073 -0.03311053 -0.085359335 -0.03939517 0.049622722 0.03639855 -0.13359937 0.041175526 -0.060260605 -0.002137048 0.010819866 0.014883474 -0.06400398 -0.043505706 -0.07164954 -0.06523304 0.0654319 0.10861087 0.017575908 0.02350655 0.035680726 -0.03881771 0.050853815 0.06574383 -0.029559296 -0.025840703 -0.11940192 -0.03639586 0.002406848 -0.042974126 0.028228456 0.15469149 -0.0069478187 -0.0558401 -0.030749276 0.06526208 0.02910731 0.017792394 -0.0714759 -0.07789536 -0.056100298 0.0006981432 -0.017446777 0.021301864 -0.08871597 -0.11173967 -0.048617106 -0.043246478 -0.026350195 -0.032549776 -0.032969244 -0.14315486 0.008982239 -0.0011606956 0.09468956 -0.13421929 0.09697792 0.008071508 -0.0014363739 0.101137854 0.02964916 0.02179546 0.024792211 0.08240284 -0.075660884 -0.16820987 0.026936699 -0.026219787 -0.08650668 -0.10530388 0.16327414 -0.07377755 0.001447432 -0.03418496 0.101905875 0.018143225 -0.02659834 0.05529359 0.07832419 0.011212456 0.104012884 0.15552406 0.10394755 0.029905407 -0.010885418 0.045771856 0.050678227 -0.0753044 0.13357757 0.07722751 -0.0428003 -0.09713605 -0.11327909 0.06654702 0.14275193 -0.030664 -0.0996539 -0.016192326 -0.13423018 -0.031178977 -0.066570036 0.046709202 -0.012780277 0.05123127 -0.1564225 -0.00036999237 -0.10879314 -0.020080328 0.15185827 0.063463405 -0.08101442 -0.0660535 0.074926056 -0.07348611 -0.05982725 -0.019113297 -0.012554298 0.09286436 0.07639517 -0.02581119 -0.023504227 -0.06879307 0.12839277 -0.083801724 -0.11017689 -0.08567335 -0.09433952 0.12309581 -0.09347168 -0.05350301 -0.060995057 -0.04314897 -0.055135738 -0.04218765 0.01752738 0.021918163 -0.00600181 0.023617817 -0.102010496 0.029033642 0.06574465 -0.14376856 0.11917414 0.07266441 0.0476706 -0.026330162 0.05424949 0.091578275 0.008630185 -0.044735517 -0.015012856 -0.019093866 0.071149305 0.07543787 -0.056242846 -0.039811134 0.042488683 -0.07461632 0.025558658 -0.012236916 -0.029492795 0.06929935 0.051482774 -0.09734526 0.008678374 0.046047155 0.061834503 -0.02686149 -0.003630051 0.007607939 -0.0010259536 0.033314466 0.07531235 -0.032317072 0.060358163 0.15000314 0.019724127 0.09598452 -0.008019017 -0.043877836 -0.09339306 0.034130037 0.02216178 0.023949344 -0.15125795 0.005956244 -0.011072671
data 0.04654824 -0.021509634 0.020322496 0.043882832 0.097890034 -0.10760889 -0.00091145723 0.12570432 -0.022740364 0.061122216 -0.045318745 -0.06883809 0.0023869758 0.09436169 -0.036139358 -0.08932027 -0.05122613 0.05405044 0.03513385 -0.1433246 0.04362335 -0.063140415 -0.00095001195 0.015221338 0.019699391 -0.06503172 -0.043061495 -0.08042037 -0.07586628 0.070099115 0.12128426 0.016848298 0.025652813 0.037042137 -0.036831908 0.061111443 0.06624664 -0.03756977 -0.031612925 -0.13488692 -0.04297918 -0.00096055 -0.052219626 0.030322818 0.16478139 -0.010342751 -0.060818095 -0.034394283 0.071764246 0.031035757 0.014742645 -0.08223702 -0.08439323 -0.05252199 0.0034400898 -0.012450867 0.013634971 -0.10141966 -0.12193316 -0.053269062 -0.038880646 -0.020711036 -0.035145167 -0.036095556 -0.15327723 0.008237513 -0.0051891524 0.10531266 -0.13785493 0.10670434 0.015313902 0.008370815 0.10369285 0.030411044 0.024805997 0.025551453 0.08647803 -0.08390466 -0.17405096 0.024723351 -0.023650223 -0.09633888 -0.117389016 0.172774 -0.08456017 0.00041698862 -0.043807644 0.10183546 0.018682988 -0.026400784 0.05782291 0.08427426 0.013202233 0.109415784 0.15972923 0.11655822 0.026480226 -0.017816849 0.048362132 0.051016003 -0.0751295 0.14255212 0.08194646 -0.052944954 -0.09584053 -0.120277256 0.07870251 0.15065028 -0.032356665 -0.112453796 -0.016703302 -0.14016262 -0.024923852 -0.075192496 0.056732535 -0.016252393 0.05836829 -0.16924444 0.0017481359 -0.121128805 -0.015446241 0.15359835 0.06655309 -0.086912364 -0.068395615 0.077212766 -0.07768084 -0.071993575 -0.020472193 -0.0093489 0.1005749 0.08597538 -0.03267425 -0.031457156 -0.06626279 0.13495737 -0.09862454 -0.1087806 -0.08278165 -0.10656016 0.13043982 -0.10041228 -0.0499945 -0.06600394 -0.046516474 -0.06497928 -0.04275007 0.022000799 0.022534592 0.00039241926 0.03201235 -0.1005179 0.029485378 0.06250852 -0.14573486 0.1228677 0.07470906 0.053070802 -0.03340146 0.055947818 0.09270085 0.008010878 -0.048182387 -0.013688156 -0.021807658 0.07824392 0.08227687 -0.06250099 -0.039461188 0.037811644 -0.07372851 0.02326638 -0.01343906 -0.02357635 0.07286312 0.0531525 -0.09847956 0.013620408 0.05230486 0.07362306 -0.026634032 0.0017140454 0.011712367 -0.0040750396 0.04282709 0.079756774 -0.026094588 0.068905145 0.15900381 0.017165452 0.10756978 -0.008717634 -0.039948888 -0.095652595 0.042202286 0.023360603 0.020249683 -0.16669694 0.0041630142 -0.019591138
of 0.04494681 -0.018842092 0.013543489 0.03936157 0.086307056 -0.098206066 0.0017910089 0.11071019 -0.024667555 0.04990681 -0.040102247 -0.0583711 0.006626804 0.083092906 -0.023760792 -0.082055725 -0.03949231 0.051734447 0.037204474 -0.11847105 0.037114378 -0.06221347 -0.0045915917 0.0091186315 0.020495882 -0.062779635 -0.045901824 -0.061174944 -0.05913187 0.060734067 0.10952054 0.0161946 0.020553617 0.035197318 -0.033027716 0.04956671 0.058002926 -0.027675418 -0.020083703 -0.1181658 -0.03877551 -1.4358257e-05 -0.038712453 0.027504584 0.13809103 -0.009010219 -0.053679675 -0.026937535 0.064081855 0.024632912 0.011531065 -0.072254255 -0.075556956 -0.048514657 0.003973121 -0.007213698 0.012936102 -0.08325972 -0.09816958 -0.045976285 -0.03571137 -0.01584467 -0.027007991 -0.029625222 -0.13709803 0.009990809 0.0028810564 0.09376036 -0.1251421 0.092915826 0.013924594 0.0007953913 0.09374712 0.029361004 0.025876194 0.024933983 0.0698006 -0.06734491 -0.16064109 0.020487282 -0.024393102 -0.08059301 -0.09959916 0.15863487 -0.06599561 0.00016333182 -0.034667645 0.09270019 0.01716495 -0.025244964 0.051631667 0.068759836 0.010656032 0.09694909 0.14402589 0.10029604 0.029722434 -0.016177593 0.04761946 0.04291008 -0.063240655 0.1241175 0.07113635 -0.04033007 -0.0911517 -0.099669605 0.06982093 0.12764661 -0.025887124 -0.099163055 -0.012717395 -0.118883304 -0.021992119 -0.06420502 0.04738857 -0.008527549 0.05459031 -0.14974833 -0.0057236464 -0.10390258 -0.018005054 0.13960162 0.056350917 -0.07529884 -0.062395666 0.072187856 -0.06724841 -0.06351251 -0.015949596 -0.003265855 0.086508565 0.07128982 -0.024241582 -0.026157945 -0.06597482 0.11913848 -0.084932454 -0.1007928 -0.07709323 -0.094115615 0.110810384 -0.07856732 -0.04383357 -0.056231804 -0.04169396 -0.053791102 -0.0368395 0.016078977 0.020808315 0.0005580254 0.019290421 -0.0948147 0.016475536 0.053703196 -0.1301613 0.11245494 0.06573123 0.0468028 -0.024878081 0.04620563 0.08248811 0.0052069635 -0.03845823 -0.014052718 -0.02200311 0.072603285 0.06824012 -0.058278415 -0.041256282 0.034832828 -0.06687676 0.024827817 -0.011607272 -0.027394887 0.05798384 0.044067852 -0.086765274 0.011690528 0.040800843 0.05817752 -0.023974966 -0.0024984998 0.008992357 -0.0025703653 0.037628677 0.06615454 -0.026913825 0.05593727 0.13385022 0.010516808 0.09003178 -0.00843893 -0.042284086 -0.077242464 0.029096786 0.01235109 0.014212277 -0.14093246 0.0056471783 -0.008728177
Science 0.042383287 -0.014357368 0.015143786 0.044001438 0.08579526 -0.09509993 0.00024704597 0.10948182 -0.017659271 0.05374178 -0.036283158 -0.05822875 0.0078113945 0.08176314 -0.027291847 -0.08611115 -0.04411336 0.050607517 0.029842054 -0.12406612 0.034273457 -0.058009334 -0.0062698526 0.016606042 0.017555058 -0.065537035 -0.040053748 -0.06757774 -0.06936479 0.06075889 0.10602923 0.012774236 0.021732723 0.037713848 -0.035770956 0.05381588 0.0583272 -0.026864491 -0.023657842 -0.11532357 -0.0369398 0.0018642063 -0.047870893 0.028236032 0.14278418 -0.015507459 -0.053713266 -0.030405086 0.062401153 0.028418217 0.018396256 -0.07305196 -0.07525875 -0.04997327 -0.00022817607 -0.008777233 0.017506812 -0.087100394 -0.10930426 -0.05041077 -0.03735102 -0.016747016 -0.029025886 -0.03864835 -0.14219087 0.008765305 -0.0013310646 0.088518135 -0.123089746 0.08976704 0.01290894 0.0032292395 0.08835417 0.028139608 0.025145661 0.032127153 0.07441801 -0.069176346 -0.16161555 0.023972025 -0.023530293 -0.08107957 -0.101373844 0.15556125 -0.07535353 0.005434712 -0.0342716 0.09192764 0.016474573 -0.017458778 0.044852402 0.074778184 0.0076350714 0.09866775 0.14893351 0.09923949 0.02963138 -0.014484092 0.04057596 0.0423599 -0.06663311 0.1267269 0.076996975 -0.03935267 -0.09340865 -0.10159846 0.06263283 0.13230366 -0.025988542 -0.09498642 -0.0107372925 -0.11880131 -0.022322034 -0.065630026 0.043516137 -0.012972928 0.054613236 -0.15254338 -0.0035617617 -0.10191123 -0.018925972 0.13697244 0.060967565 -0.074960835 -0.058356673 0.073430024 -0.07026088 -0.058941443 -0.014854211 -0.0071553937 0.092559755 0.07243477 -0.02253072 -0.030098192 -0.0601449 0.11187697 -0.08403364 -0.10521217 -0.07776261 -0.09570072 0.11014708 -0.08510873 -0.046429016 -0.062207222 -0.04619032 -0.059033867 -0.036021434 0.018730726 0.014128543 -0.0013135027 0.028011424 -0.091510996 0.01687153 0.059438568 -0.13758995 0.1049178 0.06407499 0.045449775 -0.032720637 0.044546805 0.08464217 0.013024663 -0.043036323 -0.008788374 -0.022607317 0.07033834 0.07727975 -0.055198293 -0.041074444 0.039328326 -0.06486439 0.02782162 -0.013458803 -0.027997676 0.06233505 0.041536003 -0.09075033 0.011476931 0.045379452 0.06622517 -0.025125576 -0.0058641117 0.01111433 -0.0023662837 0.031313665 0.06890927 -0.026372986 0.059253786 0.13405266 0.017068135 0.09669941 -0.013492794 -0.038058948 -0.08475083 0.031231627 0.016483631 0.017181568 -0.14250231 -0.00047931413 -0.012108466
that 0.043610316 -0.01321664 0.02019993 0.0476974 0.09147413 -0.10823623 0.0007540091 0.117627665 -0.025141593 0.054809522 -0.04414013 -0.06559037 0.009664485 0.0883 -0.025656201 -0.08792801 -0.048470244 0.054254316 0.03988601 -0.13289544 0.03892783 -0.0624218 -0.0074568926 0.017820572 0.02301184 -0.0640202 -0.049475282 -0.06939756 -0.06657481 0.067425944 0.111983135 0.021878045 0.01980585 0.03694312 -0.034566287 0.06127059 0.0672749 -0.03705305 -0.031596854 -0.12069305 -0.038729526 0.00026023728 -0.052031152 0.024099879 0.15337199 -0.013463381 -0.054500166 -0.031031266 0.0642967 0.025042726 0.02161682 -0.078176446 -0.08609483 -0.048728492 0.003999052 -0.009214979 0.014299291 -0.09578062 -0.114336275 -0.05193985 -0.044165466 -0.024419736 -0.03297229 -0.03355162 -0.1444798 0.0067320187 -0.002052491 0.09790364 -0.13885613 0.10320988 0.007842916 0.004541177 0.09916472 0.02791131 0.019398099 0.032865085 0.07483059 -0.07772341 -0.17096718 0.030582482 -0.026243912 -0.08677901 -0.10364239 0.16807169 -0.079834834 0.0038597132 -0.036352303 0.101826645 0.024589432 -0.022808855 0.05292419 0.07769501 0.0035263288 0.10322976 0.15818027 0.104034066 0.030096142 -0.0151590435 0.050201185 0.05143046 -0.074548684 0.12991717 0.0820542 -0.051576443 -0.100732744 -0.114569224 0.067136414 0.1436386 -0.028196193 -0.10788217 -0.017101064 -0.13343932 -0.029912697 -0.06921068 0.054293163 -0.0074836304 0.06033202 -0.1669046 0.0018386932 -0.114730746 -0.014106439 0.15216227 0.06902103 -0.0873783 -0.06906428 0.08201629 -0.07483652 -0.06374497 -0.017033609 -0.009006443 0.1026656 0.08151279 -0.03402139 -0.032023642 -0.06765347 0.121855736 -0.0862783 -0.10664366 -0.08877378 -0.096140176 0.12684505 -0.089067705 -0.048075333 -0.07184876 -0.044967595 -0.06518614 -0.040899456 0.022483721 0.02088826 -3.587098e-06 0.028746871 -0.10176966 0.02624 0.06689965 -0.14953399 0.122740015 0.07237544 0.054486413 -0.03007845 0.04977164 0.09077055 0.009825448 -0.043083213 -0.009050813 -0.023938091 0.07794471 0.08067804 -0.06799828 -0.03863321 0.04401349 -0.07248692 0.028590174 -0.018564852 -0.0316769 0.07162144 0.046680268 -0.0956096 0.010492927 0.045676548 0.06779911 -0.025314638 -0.0040735565 0.009423623 -0.0012593385 0.03699555 0.0746471 -0.034084767 0.069958866 0.14343338 0.019301208 0.1014731 -0.014030421 -0.044225138 -0.094887905 0.03518479 0.022266695 0.026139442 -0.15805998 0.002516356 -0.009523358
you 0.03865517 -0.014984773 0.019131463 0.036627017 0.08001722 -0.1027366 0.005111634 0.11155262 -0.02385635 0.0502467 -0.037543535 -0.056739938 0.0053002513 0.08099058 -0.029905405 -0.08194865 -0.04102742 0.05335405 0.028243378 -0.12712306 0.02988003 -0.060267016 -0.006822048 0.014612036 0.014834991 -0.06611048 -0.039600283 -0.07157233 -0.06419864 0.059756435 0.11265976 0.02224607 0.022653326 0.03953913 -0.031593643 0.050014004 0.06292888 -0.03723855 -0.020842861 -0.11516709 -0.04092688 0.0012335881 -0.039146602 0.021958584 0.14846909 -0.013744493 -0.046371408 -0.02868473 0.06464938 0.024060227 0.018619424 -0.0657647 -0.074749224 -0.04814828 0.0049077338 -0.008051506 0.019604307 -0.08136407 -0.102246545 -0.04347703 -0.031801913 -0.021379743 -0.033074837 -0.033284556 -0.13763493 0.005077804 -0.004735593 0.086392574 -0.12794825 0.09775337 0.008641494 -0.00024895836 0.095486075 0.028779987 0.023148892 0.02988836 0.075137526 -0.069278896 -0.15961836 0.024779655 -0.016877271 -0.08067815 -0.10342336 0.16244124 -0.0701119 0.0023305255 -0.037848078 0.0952452 0.0223756 -0.01806527 0.04914093 0.06857337 0.007847583 0.09485545 0.14821793 0.096100114 0.033512145 -0.017889036 0.049206335 0.03831948 -0.06312482 0.1277278 0.07355952 -0.046085555 -0.08984064 -0.10513151 0.062994905 0.13680138 -0.02609634 -0.09723216 -0.01680702 -0.11918309 -0.026958238 -0.06617103 0.04172527 -0.0072821938 0.055249915 -0.14699139 -0.0060865455 -0.10907127 -0.020485327 0.1398584 0.058360483 -0.08040087 -0.060271896 0.072608724 -0.07264888 -0.06228363 -0.0182748 -0.004645885 0.09176812 0.0754823 -0.030221801 -0.029816639 -0.062750354 0.122079484 -0.08039321 -0.101606146 -0.07751021 -0.09852253 0.112475425 -0.08798377 -0.0448189 -0.06313799 -0.04479248 -0.061167646 -0.037264533 0.017365955 0.018166013 -0.0028076603 0.023562724 -0.0968592 0.017970448 0.0576045 -0.13459088 0.10844195 0.059834156 0.04401829 -0.034496438 0.047317144 0.08894628 0.008205695 -0.03745718 -0.010473804 -0.017981404 0.073262155 0.0783393 -0.06318473 -0.043408968 0.033348802 -0.07077059 0.021248993 -0.017801601 -0.027379803 0.06309641 0.04350583 -0.09680032 0.011466552 0.043489162 0.06411795 -0.017874887 0.0015233409 0.007964548 -0.0016233672 0.032061063 0.07011284 -0.02567994 0.06546907 0.13569847 0.016204244 0.089494154 -0.0108859325 -0.034372043 -0.08646906 0.03421743 0.012673489 0.014718897 -0.14354587 -0.0006820545 -0.011175859
be 0.038577966 -0.016198834 0.01289387 0.044484206 0.090192035 -0.09768945 0.0051425337 0.11213064 -0.02711353 0.06062535 -0.04199732 -0.0558627 0.008937166 0.082309335 -0.03334726 -0.08759716 -0.039973557 0.046627443 0.03447265 -0.13254295 0.041268308 -0.063492775 0.0021019783 0.009953 0.01338159 -0.069271825 -0.045967042 -0.06645376 -0.0672066 0.070509344 0.1115457 0.020058447 0.024986776 0.041858777 -0.035763677 0.058079205 0.054902617 -0.030535225 -0.025654824 -0.12011876 -0.03567084 0.0014210015 -0.046456397 0.02505351 0.1480485 -0.012654056 -0.04948517 -0.03186996 0.06721793 0.02692207 0.016473865 -0.07069137 -0.07853692 -0.050152857 0.000637572 -0.01116485 0.01603601 -0.090723455 -0.11322995 -0.054785922 -0.03781946 -0.025653688 -0.034109168 -0.037416946 -0.14664538 0.0054408694 0.0034358175 0.092052855 -0.13427208 0.097832136 0.010280007 -0.00040950679 0.09450189 0.029480003 0.020241227 0.022878671 0.07983725 -0.07218348 -0.16597077 0.029283974 -0.02163947 -0.081172876 -0.10413544 0.16783832 -0.07442411 -0.0024723033 -0.039685424 0.10171818 0.0190881 -0.021828903 0.054360077 0.071833886 0.007479984 0.093681015 0.14693582 0.09932385 0.030614166 -0.013382919 0.051390253 0.047173154 -0.068690486 0.13138495 0.0728725 -0.04392525 -0.08708188 -0.108917885 0.07179289 0.13379742 -0.02448994 -0.09901891 -0.010976934 -0.13167246 -0.027915828 -0.066010445 0.045850992 -0.013661595 0.05732643 -0.15902075 -0.004413386 -0.10360041 -0.020857539 0.14917798 0.06474692 -0.07528002 -0.06277105 0.070540436 -0.075370066 -0.063001655 -0.021176625 -0.00958422 0.097386435 0.07396574 -0.030461755 -0.030560846 -0.067448474 0.11625601 -0.086689524 -0.09904619 -0.07484952 -0.09861306 0.11155323 -0.0896847 -0.05373306 -0.06570985 -0.046448983 -0.05552419 -0.041457705 0.021984922 0.021931238 0.0025642538 0.024926014 -0.102712356 0.025814962 0.057431094 -0.1369742 0.114724554 0.07191829 0.048833188 -0.031224634 0.05325672 0.08451851 0.005757064 -0.039292887 -0.014704083 -0.02448895 0.07185063 0.070063286 -0.05978279 -0.04055577 0.037334833 -0.067678064 0.02672513 -0.011180952 -0.030685937 0.06115055 0.041019708 -0.09955306 0.007564743 0.04518535 0.060000923 -0.024965858 -0.0045256475 0.011383911 -0.0026151126 0.04054315 0.06692772 -0.031016765 0.061313443 0.14691302 0.016070573 0.09614579 -0.009101466 -0.038502656 -0.091989286 0.037839152 0.021159468 0.02220389 -0.15018213 -0.0023338879 -0.016265985
Have 0.045835756 -0.014947869 0.012735973 0.04220378 0.08322038 -0.095434256 0.0031588515 0.10779906 -0.020830574 0.05734161 -0.040477645 -0.058949172 0.011425447 0.08548114 -0.033435825 -0.08133929 -0.037409063 0.047631234 0.035705887 -0.12698786 0.039369434 -0.06097295 0.0011793594 0.017029986 0.019937862 -0.06725082 -0.04397773 -0.06693059 -0.06535883 0.06705437 0.11272334 0.019378651 0.028823394 0.032207165 -0.037177306 0.054333735 0.060672015 -0.03334806 -0.027900867 -0.11972897 -0.043135237 0.007799035 -0.042723335 0.020861443 0.14668995 -0.008757345 -0.055226725 -0.030710226 0.061744418 0.031110186 0.01000995 -0.07160407 -0.08100141 -0.05005106 0.0038744225 -0.015306365 0.0136170685 -0.087430485 -0.10955373 -0.045055017 -0.035209738 -0.026452422 -0.033941656 -0.03353214 -0.1433796 0.0019069109 -0.0042880313 0.08882478 -0.12390229 0.09815419 0.012118193 -0.0014213817 0.0965928 0.031039363 0.021507464 0.023094203 0.07351158 -0.07275735 -0.16635542 0.026904732 -0.021353053 -0.0869927 -0.10583768 0.16414316 -0.07730739 -0.002524582 -0.033634532 0.09471346 0.017297424 -0.02435733 0.049320143 0.07612528 0.0050602388 0.093397856 0.14459747 0.10017893 0.023672316 -0.020950325 0.051240575 0.048285577 -0.07102778 0.121005684 0.07159438 -0.046953548 -0.08479108 -0.10588235 0.064272955 0.13297854 -0.03279559 -0.098511115 -0.01533476 -0.12558436 -0.024368534 -0.06280754 0.050702248 -0.013639774 0.055306543 -0.15746164 -0.0061949533 -0.109831914 -0.018609742 0.14226748 0.06196125 -0.07564293 -0.055962525 0.07556867 -0.069275774 -0.056667417 -0.017613146 -0.008677715 0.0884923 0.07966065 -0.030192627 -0.028353367 -0.057905365 0.116941266 -0.08369785 -0.10555944 -0.07600483 -0.09111752 0.108820625 -0.08838463 -0.044228945 -0.061469518 -0.04325842 -0.056097567 -0.041261554 0.02650231 0.018833548 -0.0029155274 0.026659144 -0.095357284 0.01905487 0.06189437 -0.13814563 0.10809891 0.07031817 0.05025604 -0.024812782 0.049173392 0.08641511 0.005563784 -0.038319908 -0.008153643 -0.023182541 0.07102143 0.0719632 -0.058522515 -0.04327828 0.04045268 -0.067066304 0.029670028 -0.017449249 -0.028122121 0.05922802 0.041006207 -0.09207373 0.011456015 0.044314712 0.06422121 -0.0271417 -0.0031539781 0.0042868922 -0.0014784688 0.034498535 0.074652545 -0.02973468 0.06442656 0.14171857 0.016056938 0.09369152 -0.0055091684 -0.03853429 -0.080475725 0.03753351 0.020054786 0.02180853 -0.15374318 -0.00034830061 -0.013028515
from 0.045592785 -0.014667731 0.019980013 0.047487505 0.09298724 -0.10867726 0.0043523647 0.121878654 -0.021220786 0.06245937 -0.043071654 -0.06845151 0.007161952 0.0848407 -0.03274166 -0.09835488 -0.04670509 0.050275657 0.040067036 -0.14081508 0.043831103 -0.07106065 -0.005410858 0.014512006 0.01871083 -0.06963243 -0.04891858 -0.07428371 -0.07543821 0.06621563 0.12217008 0.019061953 0.028050786 0.036293194 -0.036558762 0.0530509 0.06802385 -0.032005534 -0.030595094 -0.12565254 -0.04605885 -0.00085324974 -0.048157997 0.028239114 0.15656854 -0.016803939 -0.051280633 -0.03002875 0.06845542 0.030428968 0.015200825 -0.077495016 -0.08372407 -0.04857635 -0.0005878024 -0.012822455 0.020619964 -0.099106655 -0.121955834 -0.04830811 -0.03762087 -0.025453722 -0.033015434 -0.03756724 -0.1554071 0.004464199 -0.0025201037 0.10445538 -0.13979173 0.09858375 0.010897316 0.002024726 0.106353745 0.030889414 0.028520985 0.030779805 0.07947102 -0.07595124 -0.1763642 0.025025174 -0.02628903 -0.092780426 -0.11469289 0.1781049 -0.08457564 -0.0024793567 -0.038885746 0.10433258 0.024061486 -0.025343496 0.053512856 0.083038814 0.011249734 0.105672285 0.16772525 0.1144635 0.027634675 -0.016841123 0.047165852 0.04633267 -0.07674948 0.13299926 0.08504964 -0.048200782 -0.09993515 -0.12005923 0.06910291 0.1434163 -0.024958754 -0.110698186 -0.011853899 -0.13852844 -0.025047345 -0.071461275 0.052846357 -0.013069366 0.05793366 -0.16888803 0.0015342307 -0.113611154 -0.018618934 0.1578882 0.070689745 -0.087797105 -0.060978055 0.0805933 -0.07833542 -0.062180474 -0.021847432 -0.0055306233 0.09924893 0.087517284 -0.027506733 -0.030920198 -0.070898265 0.13509527 -0.09185383 -0.1151033 -0.08561641 -0.10447103 0.1261979 -0.0992531 -0.049769845 -0.06806812 -0.042560436 -0.059845462 -0.04279459 0.024558911 0.021552525 -0.005789557 0.03234045 -0.100608334 0.02941929 0.0627987 -0.15501218 0.12467761 0.067909084 0.05569504 -0.031303275 0.056338847 0.0988101 0.01127474 -0.044969734 -0.013697348 -0.018951165 0.074753046 0.079858616 -0.06657404 -0.040857706 0.045093153 -0.076146916 0.029093893 -0.018647794 -0.027252393 0.07334962 0.051163554 -0.104245044 0.008733506 0.05290894 0.07310439 -0.020706784 -0.0052625537 0.0079325605 -0.007463796 0.036590792 0.07825918 -0.033918355 0.06388834 0.15692858 0.020708753 0.10725512 -0.009745348 -0.04707271 -0.09781081 0.039205737 0.014292624 0.01790957 -0.1632308 0.00067348697 -0.01969348
course 0.038660683 -0.0174045 0.010858086 0.032969896 0.07400781 -0.08417496 -0.0028417197 0.09685194 -0.01270143 0.041718487 -0.026396869 -0.04537494 0.0020605677 0.067234926 -0.021413065 -0.06818865 -0.03797619 0.037980374 0.03111673 -0.11066562 0.026216548 -0.051990554 0.00081825675 0.0070862565 0.018832617 -0.054747522 -0.03475141 -0.053884562 -0.055230256 0.058442593 0.091185905 0.010462342 0.02421333 0.02822549 -0.026579723 0.043449927 0.045989264 -0.030959297 -0.018058369 -0.0996271 -0.032310717 -0.0023523467 -0.041097973 0.017150195 0.12767337 -0.014806766 -0.040742576 -0.024484733 0.052461624 0.027437815 0.011335502 -0.06362213 -0.06416612 -0.03832617 0.0067467075 -0.013005857 0.015146347 -0.07115773 -0.09265977 -0.036919538 -0.035739455 -0.017036011 -0.024847137 -0.027094288 -0.12018868 0.0059921215 0.0040907 0.08253992 -0.11399309 0.08304345 0.011515451 0.0018666806 0.08392071 0.022670547 0.017574262 0.02007925 0.06077409 -0.061418105 -0.13902755 0.018639425 -0.013955677 -0.07288479 -0.08927971 0.14030322 -0.05689651 0.0024094146 -0.03031526 0.0798296 0.015525164 -0.014523259 0.038303554 0.06312838 0.009216939 0.079682134 0.12610608 0.08918061 0.02905372 -0.011120031 0.044116784 0.03441213 -0.055089366 0.10417067 0.05869912 -0.0373867 -0.07835398 -0.09325071 0.057233892 0.11780588 -0.026446389 -0.09008049 -0.012483331 -0.10005721 -0.028709503 -0.051357154 0.04013444 -0.006415899 0.043168027 -0.13200983 -0.001010846 -0.08532688 -0.019315511 0.119368926 0.0548176 -0.06289025 -0.046588045 0.05913639 -0.05382442 -0.05339369 -0.017800275 -0.0024434759 0.07993701 0.060179036 -0.023051275 -0.027730891 -0.05404098 0.10351138 -0.07525066 -0.08274061 -0.06337205 -0.08111883 0.09020932 -0.07450807 -0.042442285 -0.050825357 -0.031615667 -0.0467977 -0.032221828 0.019451456 0.013007356 -0.0011994756 0.020833036 -0.075863734 0.015566663 0.045928843 -0.11416849 0.09576716 0.05101155 0.036793575 -0.02542066 0.038735587 0.06781603 0.006161073 -0.034962457 -0.0068488377 -0.019396441 0.061082836 0.06280042 -0.05142391 -0.031421434 0.032793526 -0.053463284 0.02088144 -0.01654725 -0.022139175 0.058211762 0.03455265 -0.080578975 0.0058100424 0.040863585 0.05261165 -0.013495855 -0.0067546098 0.011235055 -0.0081649795 0.035830334 0.059406698 -0.022230849 0.048847076 0.12207566 0.016259542 0.0760046 -0.013888371 -0.029103974 -0.07490741 0.023795912 0.016039122 0.0138444295 -0.12955709 0.006492572 -0.012489145
is 0.033898417 -0.0143665485 0.012342381 0.030802278 0.068744436 -0.08480502 -0.0041633407 0.09634408 -0.013252509 0.0430479 -0.029353656 -0.05213337 0.009340855 0.070795536 -0.022687351 -0.073791645 -0.036988195 0.042816658 0.026798386 -0.10210775 0.032804523 -0.047997676 -0.004581348 0.012639865 0.014635691 -0.05665918 -0.03199885 -0.060650762 -0.05540099 0.05259233 0.08461322 0.013666349 0.022304766 0.026990915 -0.032507025 0.047674958 0.047157675 -0.031301875 -0.019956496 -0.097371764 -0.02912212 0.002497513 -0.03374429 0.014591165 0.12319467 -0.007359459 -0.041532468 -0.025457036 0.051868197 0.022047454 0.008726062 -0.06197538 -0.06279284 -0.04203104 0.0070473016 -0.011484254 0.01655056 -0.07117177 -0.083984725 -0.043894466 -0.030998921 -0.01829184 -0.025348032 -0.02887496 -0.11871332 0.009530597 -0.0011805543 0.07800774 -0.11008357 0.08024847 0.0137155885 0.002221971 0.08088218 0.024219124 0.022504186 0.027899453 0.061012313 -0.06178751 -0.13922118 0.026256982 -0.018367436 -0.06795274 -0.08537742 0.13746631 -0.05618041 0.00090994814 -0.028457403 0.0814903 0.016884575 -0.014251034 0.040369418 0.060740303 0.00924234 0.0775599 0.12174061 0.09062635 0.018735623 -0.013401413 0.036728434 0.03979772 -0.052631374 0.100371756 0.06263084 -0.03699246 -0.07954754 -0.08986259 0.05371791 0.10911893 -0.023187183 -0.08628954 -0.0074847867 -0.09668946 -0.024312835 -0.053494275 0.039271604 -0.007861488 0.03900941 -0.1256917 -0.00024330111 -0.08300727 -0.011959612 0.11915582 0.05558463 -0.06778007 -0.049662486 0.057073973 -0.052967537 -0.045302905 -0.018856768 -0.0062824576 0.078100435 0.06433762 -0.021099288 -0.025986833 -0.047227543 0.09475509 -0.073662825 -0.08694013 -0.06844467 -0.079722166 0.08848029 -0.07082068 -0.042309493 -0.053373955 -0.03219863 -0.045232918 -0.029270768 0.01642281 0.020957328 -0.0008997827 0.023949672 -0.07468842 0.013140408 0.043797355 -0.10781242 0.09359282 0.05257519 0.04124084 -0.026484134 0.03631989 0.0665977 0.011585782 -0.033703897 -0.014399876 -0.02272742 0.062043503 0.059927657 -0.05203291 -0.032936204 0.031158013 -0.057395075 0.0199204 -0.009684068 -0.021602646 0.0509172 0.038070597 -0.073341824 0.0024386293 0.03201726 0.055061184 -0.022371339 -0.0025272 0.0018302101 0.0010660181 0.028328635 0.05353675 -0.023985405 0.050267875 0.119276814 0.01731671 0.07654305 -0.007114731 -0.029324234 -0.07043604 0.02528187 0.014021783 0.017938625 -0.118332714 -0.00010125344 -0.016702473
at 0.042292222 -0.009022995 0.01339521 0.037740625 0.07812808 -0.09034763 0.0062483856 0.10447288 -0.017940678 0.05537438 -0.03380891 -0.059979446 0.0064958287 0.07646908 -0.028393215 -0.078066215 -0.040505763 0.051867273 0.031710323 -0.1190293 0.032406524 -0.061891258 -0.007371479 0.014792583 0.014660401 -0.05926068 -0.03904201 -0.06754144 -0.064006984 0.058035765 0.09718923 0.017409798 0.026185265 0.031458907 -0.03513822 0.05480257 0.060348492 -0.025279688 -0.029056761 -0.10928324 -0.040930107 0.006612645 -0.039057616 0.021586694 0.14177209 -0.014906657 -0.045623854 -0.024840744 0.06188355 0.027663419 0.0127487425 -0.065472096 -0.076376006 -0.05023561 0.0034235509 -0.017204437 0.015311163 -0.08184175 -0.096986614 -0.049113013 -0.03723694 -0.022162965 -0.033626407 -0.0331571 -0.12984024 0.002325493 -0.0009514726 0.092161715 -0.1224901 0.08678664 0.013972241 0.0029171014 0.08812955 0.032900706 0.025259783 0.027936868 0.072294064 -0.07070739 -0.14884669 0.027080728 -0.022416206 -0.08186528 -0.0969945 0.1477708 -0.0675352 -0.0040949387 -0.035907492 0.09175978 0.018972846 -0.018493434 0.04121856 0.072107784 0.009734394 0.09291901 0.14402376 0.098019086 0.030716017 -0.008859967 0.042807408 0.04261424 -0.0636624 0.114909045 0.07219254 -0.04472231 -0.08722798 -0.10215108 0.067579605 0.12866269 -0.025845293 -0.095831335 -0.013749658 -0.11747879 -0.028996268 -0.06496061 0.04515773 -0.0068374043 0.05029992 -0.14071828 -0.0017032757 -0.10157418 -0.020474086 0.13802333 0.06365932 -0.07632755 -0.054205656 0.073480584 -0.06863006 -0.059333056 -0.022468753 -0.0063147536 0.08403608 0.07319643 -0.019936757 -0.029799154 -0.06482787 0.11315699 -0.08404719 -0.10120048 -0.079519115 -0.08959388 0.106667645 -0.0815963 -0.046632208 -0.054344434 -0.03643684 -0.05743773 -0.030744206 0.015003784 0.018262787 -0.00020562617 0.023563242 -0.093700394 0.021542734 0.056405935 -0.13409401 0.102315865 0.057790905 0.045853194 -0.028667353 0.042688746 0.08551426 0.010000475 -0.03592539 -0.009323671 -0.023287658 0.07201697 0.06531155 -0.057633393 -0.041523084 0.036818586 -0.067800336 0.028246073 -0.01043905 -0.029144078 0.06290383 0.045854185 -0.09220286 0.011238848 0.03800054 0.063110895 -0.01845829 -0.0036891105 0.0030316205 -0.004091806 0.033373006 0.066177025 -0.02222845 0.056219343 0.12718762 0.008994347 0.08876994 -0.00887479 -0.036717452 -0.08198137 0.037322205 0.016538396 0.022059023 -0.13850851 -0.0017838718 -0.014424945
weeks 0.032175742 -0.016412808 0.013727072 0.038565945 0.07560629 -0.08189954 -0.001735471 0.09446207 -0.017062128 0.048769083 -0.034649353 -0.053380996 0.001557845 0.07406166 -0.029098993 -0.07981648 -0.04183549 0.047936525 0.03172407 -0.106837966 0.03618322 -0.057520937 -0.00018460256 0.013016533 0.019380266 -0.05837133 -0.032440543 -0.062840305 -0.054901794 0.061098505 0.09564064 0.017576661 0.022627162 0.033729684 -0.02571378 0.047472678 0.050625343 -0.02448138 -0.019002551 -0.10573356 -0.033040643 0.002850535 -0.03675876 0.019269913 0.12544322 -0.009069874 -0.04323214 -0.028113918 0.058077373 0.021694083 0.01634717 -0.060967807 -0.06344674 -0.046155207 0.00010945417 -0.00956848 0.011695533 -0.07384286 -0.09669226 -0.041550014 -0.033436824 -0.0188676 -0.02780973 -0.031888004 -0.12499638 -3.2897784e-05 0.0013701115 0.08433104 -0.11619265 0.08817184 0.011017224 -0.00048601397 0.081332825 0.027077919 0.015873512 0.025581045 0.06846943 -0.060247134 -0.13983819 0.023668384 -0.020602375 -0.076266445 -0.08587231 0.13805225 -0.06525159 -0.00097384496 -0.028607763 0.07989557 0.018333416 -0.018096717 0.041097347 0.060477253 0.0030569779 0.086729035 0.12541495 0.09320165 0.023435054 -0.017436812 0.038367152 0.042796575 -0.062340535 0.1145158 0.059410423 -0.04451502 -0.08216799 -0.09398308 0.05532676 0.114875324 -0.028707964 -0.08752937 -0.00769384 -0.113771774 -0.027281502 -0.057650723 0.044759605 -0.013107659 0.050622284 -0.1385552 0.00138831 -0.08859361 -0.012960452 0.12880468 0.060339537 -0.065115124 -0.056618698 0.067022026 -0.065325424 -0.05754232 -0.012192846 -0.011272744 0.078198604 0.06550031 -0.02094395 -0.020271758 -0.053377755 0.10724816 -0.075573154 -0.08717694 -0.07209479 -0.0842343 0.09582205 -0.07663013 -0.03966212 -0.052641816 -0.040733185 -0.048715502 -0.0284047 0.01616075 0.015690925 -0.00020488437 0.019638501 -0.07968783 0.023330374 0.056883886 -0.11558483 0.09408396 0.05800384 0.035956085 -0.028541196 0.03755677 0.07893481 0.008973257 -0.038906567 -0.0071439384 -0.018921396 0.06332532 0.062864326 -0.053313494 -0.03647761 0.036382757 -0.05815856 0.018577574 -0.010090436 -0.022483347 0.053592753 0.043583542 -0.08440617 0.012457194 0.036553666 0.051805582 -0.021682901 -0.0043258527 0.0073182476 -0.0035438612 0.033747174 0.06431308 -0.025807941 0.05612517 0.12165056 0.013948394 0.081953876 -0.00993536 -0.036415912 -0.07678865 0.031783808 0.016776755 0.0115553085 -0.12861906 0.00065713265 -0.012913355
insights 0.026535412 -0.012164874 0.009001442 0.02251982 0.06074501 -0.07273816 -0.0021487453 0.07332198 -0.009832428 0.03758007 -0.031088462 -0.037534684 -0.00023471315 0.055447523 -0.018330159 -0.06351118 -0.034117088 0.030455826 0.026620021 -0.0830839 0.026438724 -0.040655583 0.0003514694 0.0059068715 0.01770111 -0.041053127 -0.027425887 -0.04201545 -0.050631553 0.045940317 0.080342814 0.011202318 0.012506829 0.023795726 -0.026010105 0.035381515 0.039268743 -0.018270653 -0.016937694 -0.08032295 -0.029138703 0.006444803 -0.034020077 0.012612835 0.09961658 -0.0110261915 -0.038377855 -0.01944507 0.04371293 0.01960521 0.01344568 -0.050316755 -0.052307885 -0.033340123 0.0056108455 -0.00461129 0.009363062 -0.06026057 -0.07749312 -0.036055833 -0.029641671 -0.014468197 -0.025316976 -0.02679777 -0.095949344 0.00532449 -0.0048967465 0.065070905 -0.086656295 0.06741814 0.006277399 0.0076549533 0.07037273 0.019784465 0.016071305 0.014094732 0.049015526 -0.05119884 -0.11102886 0.016514938 -0.01970899 -0.05506318 -0.07501756 0.11612926 -0.048178077 -0.002884273 -0.024009017 0.070414096 0.010608406 -0.018219557 0.03927789 0.0531182 0.011076708 0.061422843 0.102419816 0.075244434 0.019267824 -0.011237726 0.029061785 0.02764884 -0.051561907 0.092492476 0.050136536 -0.035855487 -0.05881788 -0.07544067 0.046077076 0.09395424 -0.017481707 -0.072527885 -0.0093396995 -0.08810546 -0.014023688 -0.043575168 0.03390969 -0.010475492 0.037361436 -0.10621526 -0.0051073544 -0.07643184 -0.013626285 0.1002385 0.039231155 -0.05603117 -0.03744215 0.048383012 -0.043314464 -0.042371508 -0.016358702 -0.008894924 0.063056014 0.055792637 -0.021220936 -0.02131957 -0.04681481 0.08648684 -0.060348626 -0.06918041 -0.055037517 -0.070080586 0.078734756 -0.060347635 -0.031930808 -0.04814853 -0.033004917 -0.042884268 -0.024056992 0.012636604 0.013462001 0.0017000028 0.019929787 -0.06476261 0.013584479 0.041332845 -0.09837855 0.07433733 0.05000647 0.03144119 -0.02566283 0.035779063 0.06462529 0.006835798 -0.026909227 -0.011401717 -0.017478898 0.045023363 0.04799578 -0.045677803 -0.030496744 0.030943828 -0.04206354 0.015658567 -0.010070894 -0.013674579 0.044747256 0.028403537 -0.06318562 0.0073815924 0.028726 0.041263472 -0.01031708 0.0023022678 0.0014247496 -0.0053757676 0.024922296 0.048840784 -0.023604997 0.047890477 0.09464332 0.011735248 0.06954076 -0.0060802354 -0.024916222 -0.06063826 0.019020462 0.012396 0.013067095 -0.10979713 0.005382567 -0.013631431
with 0.03953618 -0.015398647 0.010221102 0.030486394 0.07900307 -0.08968972 0.0030293183 0.09663621 -0.013803176 0.052414436 -0.028993867 -0.047166254 0.0014123445 0.066615045 -0.027652143 -0.075800255 -0.03453389 0.045199834 0.02810606 -0.108352736 0.02931273 -0.056992963 0.0004940866 0.0058249277 0.016569285 -0.05905254 -0.033516597 -0.06244286 -0.057232764 0.053237427 0.100505345 0.012702697 0.022006566 0.03432653 -0.025891328 0.04432789 0.049588263 -0.0320269 -0.01854427 -0.106701225 -0.031812295 0.0017901653 -0.03608287 0.018951658 0.12872629 -0.009575938 -0.04986241 -0.020306645 0.053612806 0.026473312 0.013608107 -0.059905957 -0.066518284 -0.03935591 -0.0025800345 -0.0071249544 0.017575284 -0.076633625 -0.09243518 -0.04046083 -0.031455252 -0.02063105 -0.027292661 -0.030688217 -0.12027419 0.009356768 -0.004347836 0.08168649 -0.118032575 0.08262751 0.0047344984 0.0043175463 0.082015775 0.025079753 0.02284319 0.02001813 0.06630328 -0.06612419 -0.14505754 0.018782333 -0.023146812 -0.06963827 -0.09408907 0.14489022 -0.06688388 -0.00019281263 -0.030648874 0.079294756 0.01429829 -0.022684488 0.038467575 0.06323077 0.005661371 0.084895246 0.12969516 0.08642132 0.023209501 -0.0150462845 0.0384387 0.03619517 -0.062294196 0.10695377 0.06027988 -0.043360393 -0.07787563 -0.098440945 0.057216782 0.1224047 -0.021059068 -0.09177483 -0.008076739 -0.1138406 -0.02394029 -0.05592106 0.040929716 -0.003957519 0.045845646 -0.13249066 0.001614086 -0.09743588 -0.01872753 0.1216337 0.055422053 -0.07177602 -0.053201716 0.05959895 -0.060589258 -0.054496165 -0.013629503 -0.012062118 0.07935486 0.07066682 -0.018590743 -0.024425184 -0.054885168 0.10160133 -0.074506834 -0.09387884 -0.07328369 -0.08269539 0.10110975 -0.07351908 -0.047833968 -0.0542242 -0.036998894 -0.052768447 -0.03255235 0.021950237 0.013937186 -0.00031931465 0.024702316 -0.083856985 0.021135595 0.05635257 -0.11757963 0.10083455 0.062010087 0.037610155 -0.022181688 0.04545718 0.07315981 0.006449934 -0.03200702 -0.008693508 -0.025623279 0.063309856 0.065192685 -0.050946597 -0.030888597 0.029794227 -0.054112148 0.017491123 -0.008825451 -0.017831855 0.053373467 0.03498845 -0.078323655 0.0030291516 0.03448534 0.05481324 -0.023104528 0.0021668419 0.01153068 -0.0027135927 0.035174005 0.06634512 -0.021965524 0.05622741 0.12602417 0.016214998 0.084781915 -0.0055005723 -0.038809113 -0.07055795 0.0355151 0.020647038 0.012073103 -0.13448137 0.0020847698 -0.010280288
this 0.027974376 -0.011089537 0.016641982 0.035927895 0.06519926 -0.075803354 0.0037512563 0.08426327 -0.015094223 0.03737703 -0.028926622 -0.043032814 0.006853769 0.057741333 -0.024726907 -0.06423362 -0.031676874 0.035767294 0.028912995 -0.0953479 0.02276769 -0.04192306 -0.005499406 0.007866035 0.019582247 -0.04898287 -0.03584252 -0.051048823 -0.05339428 0.04656556 0.07910881 0.016016273 0.013300516 0.030146098 -0.02991205 0.043891743 0.043072864 -0.028000666 -0.015930811 -0.09527346 -0.030366683 0.0016048705 -0.03800362 0.014743355 0.1163298 -0.011374361 -0.03683084 -0.02730038 0.04870105 0.019470988 0.008807428 -0.05622037 -0.0635558 -0.040157404 0.00082085084 -0.011455525 0.010018628 -0.07181403 -0.07938026 -0.03736997 -0.026501054 -0.0148661155 -0.020443585 -0.028765688 -0.11173876 0.005095146 -0.004596366 0.07465904 -0.09530262 0.072787315 0.012138799 0.006598337 0.07410429 0.025213901 0.022039397 0.022033403 0.053066153 -0.06072592 -0.12587944 0.019079546 -0.0117773665 -0.06902101 -0.08007775 0.12855531 -0.057175886 -0.004513772 -0.027008293 0.0701766 0.011632116 -0.019737517 0.037942506 0.06128309 0.008310373 0.07797231 0.11885854 0.08231131 0.019053934 -0.0073617226 0.030535901 0.031927 -0.04874964 0.10062884 0.053203907 -0.038554512 -0.065613985 -0.08436105 0.04914883 0.10765206 -0.017988825 -0.07539819 -0.010690077 -0.0902659 -0.017686065 -0.04794755 0.04154687 -0.01028905 0.040389612 -0.11844798 0.0010970365 -0.07586421 -0.011347435 0.11177617 0.052490525 -0.05640062 -0.04551429 0.051501848 -0.05414593 -0.042009402 -0.017668592 -0.006053642 0.07263175 0.05532843 -0.015708111 -0.020171402 -0.04730682 0.09602309 -0.064871244 -0.0782305 -0.06544762 -0.067754544 0.08217791 -0.062264003 -0.035304565 -0.04870306 -0.03695853 -0.039217804 -0.028964456 0.018703748 0.01340437 -0.0035508769 0.019728197 -0.07828322 0.01357593 0.04021371 -0.1024403 0.08603438 0.049239468 0.03861727 -0.023990322 0.033660054 0.06827101 0.004938067 -0.030013675 -0.005148025 -0.01794584 0.05834384 0.05913112 -0.047509134 -0.033148505 0.034099158 -0.05152464 0.019189145 -0.010502752 -0.02310511 0.05082051 0.032667562 -0.069277816 0.004805802 0.033465475 0.049869314 -0.020519884 -0.0038212063 0.0016910391 -0.0020940881 0.02842986 0.054333355 -0.021002408 0.04755267 0.108722046 0.010649214 0.075146884 -0.009132414 -0.03232266 -0.06839769 0.021691734 0.009543036 0.01669554 -0.11248575 -0.0014944731 -0.01596817
how 0.031585373 -0.010083146 0.009648535 0.035737265 0.0760586 -0.07985336 -0.003580973 0.09411104 -0.020517718 0.051258463 -0.035015315 -0.050185032 0.0072409054 0.0673157 -0.021049067 -0.07392376 -0.032886818 0.036231715 0.030765392 -0.106021754 0.026428264 -0.050286353 -0.0028361974 0.009596565 0.014450296 -0.058264636 -0.039879862 -0.06029068 -0.06034931 0.05153732 0.09634208 0.013123678 0.015422767 0.027884241 -0.02768988 0.04320043 0.04837765 -0.028787473 -0.016963623 -0.10327666 -0.03663371 0.006651557 -0.040570397 0.022105765 0.12267209 -0.0038881132 -0.04110728 -0.022827834 0.052705582 0.023591219 0.014216098 -0.06097013 -0.06204776 -0.03827063 0.0064856918 -0.010664057 0.011887794 -0.0700584 -0.09475716 -0.041055553 -0.035059094 -0.015396903 -0.03205152 -0.027850606 -0.11160983 0.003632382 -0.004617986 0.07341082 -0.106019296 0.076511875 0.01243441 0.0025909021 0.083141014 0.023321804 0.015352348 0.020082776 0.062348805 -0.06399416 -0.13238867 0.018849714 -0.021462763 -0.0693252 -0.088659376 0.13059627 -0.06437358 -0.0004164063 -0.030322473 0.081931695 0.01974659 -0.014668459 0.04474167 0.06284328 0.0044036256 0.08513368 0.12425332 0.08830822 0.02384265 -0.00979199 0.042670093 0.03279288 -0.05921148 0.10605021 0.062347393 -0.04244884 -0.07337651 -0.08805618 0.05633446 0.1118061 -0.027222876 -0.08065634 -0.01573968 -0.108432494 -0.019995844 -0.06096822 0.038056426 -0.008928284 0.04232853 -0.13211353 -6.986697e-05 -0.08864972 -0.013169963 0.118708834 0.05646902 -0.06939681 -0.047898043 0.0581005 -0.056878723 -0.05501264 -0.017596694 -0.010443847 0.0751978 0.06940461 -0.020907791 -0.021435082 -0.055777214 0.10277678 -0.07539773 -0.08672863 -0.06882322 -0.08296689 0.09730606 -0.074743 -0.039127294 -0.050593212 -0.038741194 -0.04839191 -0.032928303 0.012907358 0.0110257305 0.00019800363 0.023369456 -0.08000297 0.016041992 0.05140813 -0.11395034 0.08900016 0.058609646 0.043826584 -0.029383475 0.040604018 0.07558499 0.006564399 -0.033727944 -0.013733516 -0.016129224 0.062967554 0.063804775 -0.051526405 -0.033840187 0.029891668 -0.061146785 0.024429347 -0.012136325 -0.021459257 0.056486312 0.032886762 -0.07427507 0.0037651153 0.034262825 0.055306945 -0.02013714 -0.0031721585 0.0039729755 -0.0044123367 0.028297238 0.05631852 -0.01870202 0.056513093 0.1171506 0.011578343 0.075202 -0.003940565 -0.035364937 -0.068275504 0.034329362 0.01780071 0.0155819515 -0.1236457 0.0061635505 -0.013641586
applicants 0.0363566 -0.009041642 0.017100051 0.03353854 0.07444503 -0.08773626 -0.003977216 0.092056364 -0.021265302 0.047018785 -0.035228115 -0.05057724 0.009065545 0.074457236 -0.020610075 -0.0716594 -0.037477378 0.04335487 0.026834851 -0.11274631 0.03411825 -0.056463223 -0.00033761916 0.008922843 0.012635003 -0.054489736 -0.040028643 -0.052836098 -0.059429005 0.050894585 0.0955412 0.017945206 0.021379152 0.032874282 -0.030720657 0.04266262 0.051030163 -0.022233063 -0.023865562 -0.10192251 -0.0318318 0.005749742 -0.04158949 0.019161193 0.12289322 -0.007893994 -0.041113812 -0.021202402 0.048909042 0.025610758 0.011571222 -0.061522625 -0.06975081 -0.046140347 0.0062801833 -0.009956777 0.009579362 -0.073092945 -0.094854794 -0.046027612 -0.029789213 -0.018330034 -0.027262792 -0.024694124 -0.116163775 0.0015759539 0.0019618492 0.07937651 -0.10885251 0.08547194 0.0052828696 0.0005949759 0.079884276 0.028338956 0.017893637 0.027596297 0.06095722 -0.06648978 -0.14154606 0.01857406 -0.013590941 -0.07389648 -0.08971975 0.14168333 -0.06634146 0.001572948 -0.027936637 0.07725576 0.016087769 -0.01987163 0.045440402 0.060361154 0.003986927 0.087513395 0.1235178 0.09058758 0.019540055 -0.008924053 0.038549427 0.034210328 -0.058601312 0.106498204 0.061323058 -0.038872365 -0.07971142 -0.09337676 0.055598553 0.11880677 -0.020983616 -0.08574139 -0.013825645 -0.10339183 -0.028444754 -0.055808216 0.043435298 -0.009712623 0.043511245 -0.13461456 -0.0060503082 -0.08624718 -0.012495999 0.12168815 0.059073903 -0.06935644 -0.051573962 0.06124506 -0.06381268 -0.057145875 -0.011101253 -0.008652819 0.074581966 0.06966731 -0.025785545 -0.02490882 -0.05261435 0.10011607 -0.076381885 -0.08917507 -0.0706849 -0.07941128 0.09508599 -0.075039364 -0.039361548 -0.054424066 -0.031819876 -0.044539988 -0.031366844 0.01781299 0.018281769 0.0034976718 0.025726797 -0.082574636 0.019159142 0.048983973 -0.116407864 0.0921939 0.055622347 0.035813265 -0.02494218 0.041908048 0.07629293 0.0070500043 -0.031747885 -0.01523645 -0.013676186 0.061535276 0.06378772 -0.04719917 -0.033311043 0.034099806 -0.056385916 0.015220975 -0.013601427 -0.023591446 0.048656475 0.039635494 -0.07711981 0.006615664 0.041826174 0.052732807 -0.01858012 0.00042030026 0.0026507778 -0.0066647343 0.03413026 0.056102425 -0.019662008 0.0548897 0.115187556 0.017488528 0.08280995 -0.011649576 -0.03785571 -0.077299304 0.03188816 0.01925051 0.015126869 -0.12685199 -0.002901365 -0.014017971
All 0.039868683 -0.01759566 0.009879277 0.03566339 0.07240586 -0.09175432 0.0029330773 0.102753356 -0.02280315 0.053100564 -0.030051598 -0.050221063 0.0030104432 0.077441 -0.029489879 -0.07812832 -0.03655222 0.04018992 0.024393974 -0.11149183 0.035851393 -0.05705544 -0.0044036624 0.013383143 0.016598333 -0.06106728 -0.03515944 -0.06171244 -0.056930948 0.05935064 0.10107784 0.020691013 0.023572968 0.029092738 -0.029557362 0.04685073 0.05263802 -0.023521734 -0.0193195 -0.10979226 -0.029268412 0.0020304238 -0.039836176 0.02478772 0.1266699 -0.009477597 -0.04528007 -0.021575792 0.057769172 0.021932635 0.009066885 -0.0648252 -0.06372811 -0.049959466 0.006525066 -0.012122358 0.013485351 -0.07302378 -0.09075726 -0.039065525 -0.028775979 -0.024995478 -0.025223602 -0.035422884 -0.1284819 -1.8050769e-05 0.0016161624 0.085397795 -0.11822713 0.08362586 0.00796292 -2.7384564e-05 0.08232186 0.028295934 0.021213615 0.023062386 0.06431819 -0.066134274 -0.14591803 0.02388417 -0.014296009 -0.07037551 -0.09510062 0.14036229 -0.0702369 -0.0027014357 -0.030206587 0.08168079 0.017968826 -0.015021295 0.046123922 0.06639578 0.012042063 0.08948342 0.13077435 0.087497845 0.024547262 -0.009305539 0.045930684 0.0375482 -0.055830907 0.11397741 0.06757878 -0.042988673 -0.077877164 -0.09542335 0.05496258 0.12259153 -0.02940995 -0.09264904 -0.010296747 -0.105937995 -0.02605773 -0.055802915 0.04557252 -0.0068483944 0.044446103 -0.133771 -0.0062814835 -0.09619065 -0.012527224 0.123348236 0.059376907 -0.0696817 -0.05419877 0.06047463 -0.06565628 -0.056619845 -0.011296181 -0.004500252 0.07727353 0.065508954 -0.021995503 -0.028455602 -0.052480634 0.10943549 -0.08028416 -0.086600475 -0.065130085 -0.08478047 0.102650344 -0.081202164 -0.039683342 -0.05185455 -0.03592028 -0.054653145 -0.030182946 0.017388133 0.017314767 0.003325882 0.02321484 -0.08289318 0.017242823 0.05531528 -0.12367143 0.09965925 0.062260415 0.044162538 -0.022474915 0.041242056 0.079471715 0.012536321 -0.037541762 -0.009099803 -0.024511594 0.06837738 0.06744818 -0.049089655 -0.032665905 0.036631666 -0.06145041 0.018147917 -0.013610337 -0.022251721 0.054092087 0.035322018 -0.0859773 0.012032394 0.044415962 0.058851283 -0.021300508 -0.0020389582 0.002871595 0.0002290523 0.031973004 0.065880366 -0.02781099 0.0533027 0.12602568 0.015530557 0.0798174 -0.012267754 -0.034015365 -0.08071008 0.03449586 0.019473113 0.015096865 -0.13644837 -0.00245251 -0.013036683
on 0.03902341 -0.012380742 0.00997709 0.038690485 0.068448335 -0.08167545 0.0041667745 0.09418133 -0.023523156 0.049922936 -0.037169818 -0.05298644 0.00978591 0.0640517 -0.028323108 -0.07542966 -0.034291085 0.04379558 0.025672274 -0.108256415 0.034425844 -0.046714023 0.0037595213 0.010965492 0.017582115 -0.053431153 -0.035477906 -0.055567477 -0.05549122 0.054491866 0.09086491 0.011770478 0.023616377 0.02862674 -0.02801425 0.04470575 0.047535613 -0.030277885 -0.019553142 -0.103160106 -0.036919124 0.0011293866 -0.035530865 0.024012847 0.12293938 -0.004471562 -0.04803771 -0.027259028 0.04807374 0.01884489 0.017769476 -0.06572022 -0.06963424 -0.047464307 0.006529472 -0.012111379 0.013756763 -0.07761233 -0.09250937 -0.04130445 -0.032761667 -0.022846052 -0.03129571 -0.028013848 -0.12280231 0.0052162213 -0.0009658083 0.08277639 -0.10950848 0.08314536 0.0051491274 -0.0010375034 0.082697056 0.024660403 0.015922938 0.022255253 0.06844845 -0.067040674 -0.14023632 0.021989247 -0.018508472 -0.06563051 -0.08778553 0.13274972 -0.06633069 -0.0044491603 -0.03517866 0.076831356 0.012583077 -0.019306451 0.041952357 0.060677513 0.007851438 0.083867036 0.13103068 0.08490979 0.02704393 -0.008345918 0.03742224 0.03349538 -0.060815237 0.102752715 0.06675658 -0.0328692 -0.07221891 -0.09495889 0.059448123 0.118228115 -0.020245302 -0.08977757 -0.011203615 -0.10948923 -0.027869336 -0.05515614 0.04500059 -0.00463062 0.040719654 -0.12835492 -0.0033164527 -0.084705696 -0.0199649 0.12587598 0.051130377 -0.06900396 -0.050169554 0.060950417 -0.06269825 -0.05259411 -0.016123114 -0.009977536 0.08129608 0.067065395 -0.017965334 -0.019004239 -0.056741204 0.10345748 -0.069440514 -0.08413694 -0.064446926 -0.083213344 0.09924893 -0.07353215 -0.04097083 -0.056289077 -0.03614859 -0.045634426 -0.035993416 0.023142027 0.018437821 -0.0007410638 0.019324671 -0.08132593 0.022189869 0.05230386 -0.11911436 0.098902896 0.05488922 0.035177767 -0.021171154 0.043180473 0.076063484 0.012525907 -0.038458657 -0.014159946 -0.020504083 0.05858015 0.062789924 -0.050093606 -0.03819346 0.032690216 -0.056350537 0.02105419 -0.009573856 -0.021747446 0.056361333 0.037845403 -0.075206056 0.00733049 0.038993698 0.05137638 -0.015534577 -0.0005751863 0.007737748 0.002216115 0.025814094 0.06399091 -0.023568181 0.051119264 0.11671899 0.008238601 0.078278735 -0.006772554 -0.02988409 -0.067477144 0.025654597 0.020061923 0.012412908 -0.12549043 0.0060710236 -0.013203105
businesses 0.031344913 -0.016480718 0.015606923 0.0338446 0.06908716 -0.082598604 0.0016927505 0.096727364 -0.016444653 0.048581645 -0.038071778 -0.04709277 0.0071547483 0.06575491 -0.025420958 -0.072809994 -0.036149822 0.041461863 0.025054386 -0.10789555 0.03215892 -0.05200598 -0.0017108213 0.011536248 0.013906459 -0.05872669 -0.031242587 -0.0630891 -0.058164787 0.054715976 0.088347875 0.016112259 0.023519672 0.030864906 -0.025425045 0.04577661 0.04719912 -0.02866782 -0.02162135 -0.09774517 -0.030152904 0.005468085 -0.041159675 0.01761636 0.12783669 -0.007690113 -0.04084811 -0.02417107 0.056892734 0.017543761 0.018385736 -0.064924754 -0.06680236 -0.038805682 -0.0027071477 -0.009435173 0.009581483 -0.07862116 -0.09006365 -0.040089667 -0.03360952 -0.013969616 -0.031004174 -0.030020328 -0.114421636 0.0057665897 -0.0040019467 0.081099056 -0.11283159 0.08065271 0.010482035 0.006472903 0.08352504 0.021929678 0.023963198 0.02059297 0.067301266 -0.06675325 -0.14230245 0.020723522 -0.022722758 -0.07338238 -0.087223426 0.13744742 -0.067812 -0.0027124756 -0.03522589 0.08134724 0.019239983 -0.018512398 0.04682704 0.06212625 0.011294301 0.08572434 0.13068476 0.08816064 0.023954868 -0.011328316 0.034453668 0.042903256 -0.060515977 0.11158007 0.06304527 -0.036790166 -0.07803788 -0.09648874 0.05807098 0.11726201 -0.028428085 -0.08691748 -0.012285623 -0.10863465 -0.021518683 -0.056069344 0.0433514 -0.012098508 0.04123315 -0.1283331 0.0016116014 -0.08749452 -0.012449277 0.11785215 0.05842675 -0.06926164 -0.05498374 0.06640767 -0.060154382 -0.05728634 -0.017733492 -0.004083233 0.07686426 0.06792682 -0.022080822 -0.020733409 -0.052981753 0.096693665 -0.0744324 -0.08245708 -0.06572113 -0.08397805 0.10057944 -0.069935784 -0.03765555 -0.053647075 -0.041676503 -0.05026404 -0.028686754 0.014653319 0.02200744 -0.0059078704 0.017773556 -0.08497531 0.022414457 0.046379246 -0.112031356 0.08982911 0.057559486 0.041993413 -0.02537007 0.047118768 0.07678245 0.008950682 -0.031596713 -0.007922635 -0.017302413 0.065755434 0.062475126 -0.05476488 -0.035810865 0.031530295 -0.061568353 0.020129796 -0.008192989 -0.024753533 0.05689786 0.040443916 -0.07988798 0.008601124 0.040778708 0.05003333 -0.0167337 0.0024039743 0.005136817 -0.00672812 0.02538604 0.054274827 -0.021908887 0.055147648 0.12311072 0.011344671 0.08031796 -0.0065663876 -0.038604595 -0.07795345 0.032612476 0.010584181 0.014987077 -0.13000219 0.0048588915 -0.013876291
need 0.035933234 -0.010186058 0.01015988 0.027496178 0.06446899 -0.07623321 0.004324613 0.08610035 -0.013776787 0.037139677 -0.031985108 -0.04381898 0.003730392 0.057422105 -0.01680827 -0.059844892 -0.032775406 0.038276304 0.02739854 -0.09235837 0.030567026 -0.04587413 -0.0052656527 0.008377775 0.008972954 -0.04183522 -0.036444653 -0.05141995 -0.05071372 0.04927765 0.08329496 0.009312095 0.014407949 0.027576318 -0.023442212 0.042290334 0.042488724 -0.024618845 -0.022264855 -0.08485629 -0.03329715 0.003718675 -0.034891427 0.014249399 0.111687094 -0.0077586635 -0.04340609 -0.026228251 0.04581575 0.015031509 0.013626261 -0.050764948 -0.05503357 -0.039847776 0.005415076 -0.014443095 0.014953749 -0.0653033 -0.080410145 -0.033582397 -0.028803103 -0.018034944 -0.025290038 -0.028625902 -0.10300713 0.0011850882 0.002113738 0.06341908 -0.097608164 0.06577552 0.0029523424 0.002275276 0.06503322 0.018450277 0.018042825 0.019926539 0.056556154 -0.05004864 -0.12460834 0.02116157 -0.020128414 -0.058126874 -0.07180108 0.123456895 -0.05855068 0.0020170677 -0.030780023 0.06917343 0.011633246 -0.020819804 0.039217994 0.056653842 0.0041100495 0.06721661 0.11134009 0.073727176 0.016161934 -0.013295145 0.03383792 0.03702612 -0.054277435 0.09658336 0.057278845 -0.035804342 -0.06745726 -0.08024959 0.05162651 0.10000954 -0.022050977 -0.07842386 -0.0065801702 -0.09705118 -0.02491268 -0.04874684 0.03688943 -0.0071369484 0.039064422 -0.11161503 -0.0007277794 -0.074338995 -0.014997706 0.101472944 0.043032296 -0.052193325 -0.043486524 0.050230995 -0.047979776 -0.041188706 -0.009751689 -0.009306043 0.065830134 0.055733886 -0.023029814 -0.017606763 -0.043673992 0.08544167 -0.05900813 -0.079421 -0.054709062 -0.07268866 0.08570583 -0.065810256 -0.03409597 -0.042809814 -0.032388855 -0.044411886 -0.031622905 0.018000549 0.01689492 0.0031164635 0.016619248 -0.07633724 0.020094723 0.0407843 -0.09887428 0.0873088 0.046290133 0.035620704 -0.023768185 0.03248182 0.06144257 0.007340451 -0.03282676 -0.01104344 -0.018087907 0.056445513 0.055586547 -0.040226564 -0.027370093 0.025808688 -0.053439185 0.023354972 -0.006964013 -0.024113962 0.04908529 0.03787656 -0.06431215 0.0029455444 0.03152713 0.046597376 -0.014428681 -0.002547874 0.004074736 0.0007784819 0.029444618 0.051597927 -0.02386136 0.043180827 0.10059352 0.013575088 0.069373466 -0.008046924 -0.033916675 -0.06379847 0.029172143 0.016862515 0.016222173 -0.11234908 0.0058518415 -0.0104423845
make 0.033444893 -0.008110961 0.009589869 0.03464875 0.07408664 -0.076501146 0.0021357276 0.08954366 -0.017778723 0.039673474 -0.030300884 -0.04567473 0.0006460394 0.06512288 -0.01985772 -0.07158813 -0.0324466 0.04277429 0.021565279 -0.09814498 0.023793133 -0.05166538 0.0014452 0.005365269 0.01327979 -0.054406133 -0.037742432 -0.05668571 -0.052746877 0.052286603 0.08250639 0.009303627 0.016214356 0.028162917 -0.030834775 0.039243147 0.047876354 -0.023233254 -0.015637398 -0.09145374 -0.030909188 0.0036005192 -0.030065918 0.020672387 0.116939366 -0.0072552506 -0.045874543 -0.019735208 0.05132664 0.02128263 0.01678174 -0.05896329 -0.059161015 -0.042639636 -0.0029166415 -0.0088001825 0.014009235 -0.06616145 -0.089705855 -0.036178965 -0.028600397 -0.014497043 -0.026183233 -0.024953518 -0.106056534 0.00010241187 -0.0054252986 0.07682914 -0.10219234 0.06991511 0.0063452492 0.003404325 0.07894936 0.021988507 0.017287735 0.01795244 0.054572854 -0.057210363 -0.12856197 0.014976354 -0.017163016 -0.07060615 -0.082611606 0.12942618 -0.057435174 0.004451598 -0.025448348 0.07519742 0.017926728 -0.014197777 0.043803725 0.06365247 0.009653909 0.07838478 0.12102812 0.08047196 0.019960526 -0.0075643403 0.037926696 0.032295186 -0.05516811 0.09749038 0.06251962 -0.034124054 -0.069446325 -0.08085341 0.05755841 0.10462763 -0.024737304 -0.08138473 -0.012585794 -0.10370316 -0.02152863 -0.057340022 0.04298985 -0.010060395 0.037551045 -0.1257235 -0.0039039429 -0.08871522 -0.0134599125 0.11556369 0.047904126 -0.05690967 -0.048655543 0.053263497 -0.055951975 -0.05030319 -0.019019341 -0.011673274 0.070267886 0.06016334 -0.017942937 -0.025016243 -0.052027967 0.09484139 -0.068245694 -0.07924465 -0.06270985 -0.07296472 0.09490362 -0.07312924 -0.036306594 -0.04641129 -0.03387718 -0.041222263 -0.031989504 0.01452882 0.011221932 0.0045752563 0.015291542 -0.07715555 0.017524142 0.044006653 -0.1041436 0.08534907 0.048342846 0.042366568 -0.028113915 0.04348947 0.066548444 0.010772151 -0.031832088 -0.012845952 -0.02180028 0.053137075 0.062433533 -0.042965684 -0.031257365 0.033722572 -0.051489938 0.02093883 -0.009707106 -0.024971627 0.0547147 0.031353146 -0.074813776 0.008063025 0.037575427 0.04519476 -0.016192323 0.0016030683 0.002150595 0.002143983 0.024865562 0.059997052 -0.025350854 0.052194122 0.11571632 0.0064119245 0.074248806 -0.011335458 -0.027004195 -0.062364157 0.024511343 0.01439555 0.014394443 -0.12350699 0.0029102631 -0.0162556
more 0.041070547 -0.017938474 0.019100193 0.042188574 0.080285035 -0.096181326 -0.004319218 0.108018965 -0.018397951 0.056707036 -0.034840703 -0.05774333 0.007359654 0.08214151 -0.023606975 -0.07714863 -0.04447294 0.042647894 0.03551182 -0.12389525 0.03532591 -0.053274326 -0.003718758 0.015281582 0.012380265 -0.056412607 -0.037697747 -0.061974686 -0.06734109 0.06731592 0.10742532 0.016084462 0.023142338 0.03890406 -0.033563524 0.052783594 0.053505585 -0.031543918 -0.024475321 -0.114420466 -0.037404783 -0.0014947703 -0.04021588 0.028657505 0.14216423 -0.0064188135 -0.050738167 -0.024347167 0.055356465 0.02235441 0.019262534 -0.06366164 -0.07592671 -0.05026465 0.0059381993 -0.011048537 0.018356537 -0.08610506 -0.10240676 -0.046437226 -0.035755422 -0.019377511 -0.034606066 -0.030480873 -0.13384035 0.008970807 -0.0007560109 0.09232338 -0.12257265 0.09268109 0.006205894 -0.0024535742 0.08907299 0.0258722 0.025985638 0.029227166 0.067643166 -0.06552284 -0.15373185 0.018104156 -0.01751422 -0.08062758 -0.102775276 0.15744327 -0.066049464 0.004833942 -0.034432728 0.09496703 0.02044166 -0.024985863 0.052154288 0.06861858 0.0025287203 0.096403 0.138137 0.101631634 0.023427816 -0.009543406 0.041230127 0.04423939 -0.059972562 0.12209993 0.06831701 -0.045327656 -0.09102042 -0.09886017 0.06721697 0.12606035 -0.022766246 -0.09035918 -0.017982978 -0.11659662 -0.029888185 -0.06575892 0.04583666 -0.013234692 0.04759343 -0.1494782 -0.005535839 -0.10401077 -0.011657594 0.13982168 0.060193107 -0.073925205 -0.054848008 0.069318235 -0.07057136 -0.06216244 -0.016673557 -0.003206587 0.08910662 0.077678815 -0.021248981 -0.025468664 -0.054981098 0.11784351 -0.0759643 -0.09233357 -0.07857579 -0.08869487 0.10395792 -0.08714 -0.05033104 -0.057178326 -0.041377082 -0.057746384 -0.032089513 0.024741147 0.021147378 0.0029379309 0.021807693 -0.09468489 0.02428603 0.05435062 -0.1336777 0.10811562 0.06033742 0.041100755 -0.027311498 0.04978541 0.08579268 0.010118533 -0.0341415 -0.010774975 -0.017597731 0.06765306 0.070969395 -0.052258763 -0.042629406 0.03899413 -0.06363449 0.02644406 -0.014346641 -0.025920587 0.05694287 0.041561678 -0.09032122 0.0060729957 0.042393193 0.06361119 -0.017847598 -0.00676782 0.0042003132 -0.004612966 0.03511793 0.0615836 -0.023356916 0.060000673 0.13128804 0.018599626 0.09345966 -0.008860584 -0.03455102 -0.08612856 0.02863435 0.015211785 0.023767238 -0.14061706 0.0047662514 -0.016965136
business 0.038074337 -0.012472306 0.01428359 0.033547573 0.07746163 -0.09035559 0.003001704 0.098502986 -0.019643968 0.045984924 -0.038132947 -0.05418819 0.0020214464 0.072573185 -0.027633343 -0.07491002 -0.040934738 0.041197132 0.027981736 -0.11349377 0.032282133 -0.047246505 -0.00017763158 0.010992659 0.01260994 -0.055561397 -0.036086306 -0.05784363 -0.05361406 0.055748805 0.098432235 0.01750694 0.02133697 0.036381215 -0.033121597 0.043908652 0.054502733 -0.023473779 -0.019870965 -0.10444812 -0.029928986 0.0036337008 -0.03841374 0.026378114 0.12940727 -0.006319567 -0.044455536 -0.029673707 0.051519036 0.024193713 0.010796909 -0.057894893 -0.06288825 -0.04733256 -0.0009541568 -0.014467166 0.012566855 -0.07717369 -0.09443518 -0.043154728 -0.030782264 -0.013446471 -0.030538661 -0.03476092 -0.11820898 0.0012716948 0.0033784322 0.081861585 -0.11564101 0.077628754 0.004527447 0.0040959823 0.083212 0.025598163 0.01909506 0.024748186 0.0659102 -0.064373605 -0.14486766 0.02100741 -0.017231885 -0.073777184 -0.09029114 0.13843215 -0.05991376 -0.0013665977 -0.026744202 0.08048431 0.011346054 -0.022906957 0.04043157 0.065152876 0.009848581 0.084816374 0.13323902 0.08960411 0.027738072 -0.01302268 0.040242005 0.041678805 -0.05910822 0.11389361 0.058728013 -0.04346752 -0.07889218 -0.09352106 0.05711728 0.117818415 -0.026367525 -0.090622686 -0.00762445 -0.10999236 -0.024844013 -0.058936447 0.040590305 -0.013350062 0.043841228 -0.13393746 0.0026389104 -0.09599358 -0.01733734 0.12246196 0.056708712 -0.0695504 -0.05574247 0.059359167 -0.05715072 -0.058327965 -0.018555384 -0.007029887 0.08079384 0.06148906 -0.018199593 -0.024224147 -0.053646807 0.09803098 -0.07888165 -0.08673423 -0.06547075 -0.08140397 0.10251331 -0.07917953 -0.042811897 -0.05566164 -0.03810292 -0.04662595 -0.031398337 0.015014312 0.018867187 0.0030541068 0.019157236 -0.0816868 0.017860482 0.05516817 -0.116569676 0.09788353 0.05649316 0.03584695 -0.022036834 0.04134866 0.07873575 0.010647037 -0.03887592 -0.012314334 -0.018261129 0.060163043 0.069263466 -0.05345981 -0.03787502 0.03442379 -0.060854875 0.017336993 -0.011193062 -0.019732872 0.051949613 0.037276655 -0.084567174 0.009413871 0.03591035 0.058962297 -0.018699003 -0.00080902915 0.0058444277 0.0015008384 0.029976506 0.056156434 -0.028073546 0.05344555 0.12582508 0.014257382 0.07825118 -0.011320791 -0.03916149 -0.07185926 0.025853474 0.016812127 0.017903438 -0.13096946 -0.0034147117 -0.009345928
Course 0.040652193 -0.019482695 0.012630561 0.04350468 0.084488556 -0.099635296 -9.96837e-05 0.110097565 -0.025572969 0.04962177 -0.038329694 -0.062712155 0.0056942524 0.080468535 -0.023594739 -0.08208675 -0.04039979 0.05079178 0.030735759 -0.11881684 0.03472726 -0.05954717 -0.006844478 0.012951785 0.02155198 -0.061026175 -0.045584843 -0.06823129 -0.06758137 0.06636572 0.10199478 0.01970746 0.01808346 0.032904405 -0.037489057 0.053954866 0.05176391 -0.034455653 -0.028046109 -0.11750534 -0.040010847 0.004354576 -0.039435923 0.023845168 0.13916573 -0.009479036 -0.04671525 -0.030803995 0.056412805 0.02825511 0.018141773 -0.07287008 -0.070207536 -0.053534098 -0.0018168787 -0.015037647 0.015943069 -0.0845769 -0.1021984 -0.043605033 -0.03398989 -0.022105616 -0.035706367 -0.03808391 -0.13580248 0.009707975 -0.0042447476 0.09139139 -0.12259653 0.09009886 0.006974322 0.0001908058 0.08827982 0.02445163 0.024374098 0.023916434 0.071288995 -0.06885713 -0.15753816 0.020371536 -0.023540618 -0.07893594 -0.09831362 0.15489987 -0.071766466 0.002186635 -0.034593888 0.09065987 0.021075616 -0.025353102 0.05150375 0.06679511 0.006044617 0.09668995 0.14183538 0.10309803 0.03065531 -0.017982943 0.04505592 0.04064264 -0.07132866 0.12179853 0.07500767 -0.039581846 -0.090389974 -0.10513211 0.061818 0.13267848 -0.025410231 -0.101900846 -0.011791943 -0.12492868 -0.026823241 -0.06255351 0.043532584 -0.009323243 0.0500498 -0.15324968 -0.002896825 -0.100767665 -0.022116188 0.13554183 0.061739422 -0.070409395 -0.058140468 0.0749659 -0.070806116 -0.055677194 -0.02053251 -0.011864022 0.08535823 0.075683266 -0.026543066 -0.021726022 -0.061362937 0.117344916 -0.07910335 -0.103731714 -0.07733163 -0.09466321 0.10647634 -0.08316412 -0.045971375 -0.0621613 -0.04336051 -0.058746368 -0.037371308 0.02210612 0.022475177 0.0026429135 0.022547532 -0.09139202 0.019919187 0.055211287 -0.13497445 0.10566783 0.065255634 0.04069786 -0.032776475 0.044554558 0.08907487 0.01101626 -0.035982486 -0.008831706 -0.025266303 0.06700828 0.075578965 -0.054733027 -0.03699404 0.0411756 -0.061326135 0.022524362 -0.013041545 -0.022936027 0.06536167 0.049441934 -0.095386714 0.006171881 0.04485998 0.06174 -0.021488259 0.000835291 0.011680136 -0.0068936744 0.03261948 0.06337078 -0.024361378 0.061233856 0.13402653 0.015845638 0.095206626 -0.005434635 -0.03474246 -0.08077715 0.035224658 0.02149893 0.019286089 -0.14521478 -0.003578622 -0.012262696
or 0.03376117 -0.010049139 0.012768802 0.03510707 0.07892066 -0.09109251 -0.0044925115 0.10252803 -0.022678168 0.045339216 -0.03307203 -0.053841665 0.008520761 0.070316575 -0.02609929 -0.07772745 -0.035756413 0.039424885 0.0340237 -0.11926574 0.027838904 -0.054589793 -0.0034437927 0.009050181 0.012962222 -0.055224545 -0.04387605 -0.06035978 -0.058214344 0.059286974 0.09841512 0.019472783 0.01585331 0.028775211 -0.029153835 0.052656252 0.048945103 -0.033948265 -0.022518184 -0.111953095 -0.03390208 0.0072677755 -0.043491337 0.01873568 0.1373331 -0.009923452 -0.0492745 -0.026772778 0.05119529 0.021896029 0.011841716 -0.06413262 -0.06994873 -0.040975336 0.00581284 -0.01246094 0.009048553 -0.07785327 -0.10019828 -0.039464552 -0.03187232 -0.02002992 -0.026635366 -0.033202924 -0.12865217 0.004604129 0.0038161762 0.08623816 -0.11584997 0.0880371 0.00792234 0.0077085188 0.081573695 0.024191016 0.017330829 0.029482504 0.06541028 -0.06722057 -0.14369695 0.017227057 -0.021173956 -0.07405918 -0.096604764 0.15096629 -0.065437734 -0.0021622742 -0.03011045 0.09089424 0.017975744 -0.016224165 0.041431166 0.06542163 0.012658163 0.09071593 0.13538042 0.09129828 0.027809594 -0.012524126 0.0470987 0.03982808 -0.058228444 0.11123338 0.06217201 -0.041791048 -0.080553554 -0.09817157 0.06406946 0.118271604 -0.029050345 -0.086284615 -0.008688135 -0.11468538 -0.02683237 -0.06252778 0.04421381 -0.0048294566 0.04790512 -0.14022206 -0.003885888 -0.097533025 -0.020996328 0.13302895 0.052740928 -0.07082379 -0.058626387 0.06963836 -0.059740484 -0.05609758 -0.0144866705 -0.008443944 0.088767596 0.06723595 -0.02080558 -0.02657294 -0.051561177 0.11265262 -0.0726751 -0.09284875 -0.07162077 -0.09081542 0.10754677 -0.08334455 -0.046980646 -0.053821016 -0.040006485 -0.047729865 -0.037448913 0.024335993 0.019108497 -0.00443464 0.0247448 -0.089558445 0.023773609 0.05663122 -0.12884378 0.10494861 0.0626659 0.04559277 -0.030485762 0.040801674 0.074358866 0.011581861 -0.038530387 -0.008741378 -0.017546533 0.06919658 0.06785215 -0.053225614 -0.03511514 0.03605739 -0.06615653 0.019416967 -0.0135800345 -0.020605154 0.05671424 0.03585163 -0.08508511 0.012327894 0.043324843 0.058964413 -0.021906974 -0.0043402454 0.006457501 -0.005565512 0.02758695 0.063413 -0.024498219 0.058204934 0.12847777 0.018055784 0.081441835 -0.003975217 -0.037229568 -0.076850235 0.029724184 0.013892227 0.017107558 -0.14019783 0.0067813457 -0.010280536
data, 0.032331236 -0.010677196 0.017458184 0.029245542 0.072317176 -0.07961074 0.0015289406 0.08822864 -0.02236603 0.047838446 -0.032500397 -0.05124943 0.0049935356 0.062001664 -0.018644715 -0.0726039 -0.035272647 0.03927364 0.024535999 -0.10337268 0.032178707 -0.047391374 -0.006976095 0.009386962 0.009695391 -0.053265367 -0.032252472 -0.052719757 -0.056837194 0.053023655 0.09151358 0.009533016 0.017050395 0.02826666 -0.032977704 0.043791406 0.050451178 -0.024148831 -0.018139888 -0.09597717 -0.031970844 -0.00047019683 -0.03595057 0.023775458 0.11938545 -0.008143234 -0.037900645 -0.021217147 0.045527767 0.025474126 0.017472057 -0.06240686 -0.058262844 -0.043525554 0.0017175358 -0.007493763 0.008995167 -0.07457679 -0.090907 -0.0444949 -0.033648238 -0.012238088 -0.02539442 -0.033277906 -0.10765879 0.0080473125 0.003703267 0.07975343 -0.10828081 0.075081944 0.0101115275 0.0044833506 0.079117075 0.018450921 0.02023075 0.027068086 0.055150118 -0.055402745 -0.12940751 0.017606337 -0.018895093 -0.071644664 -0.0866005 0.13281535 -0.061020542 0.005433766 -0.0337504 0.073748276 0.018779108 -0.013463086 0.042439617 0.06399464 0.010649335 0.07460905 0.12469564 0.08006456 0.022179788 -0.01519352 0.041661315 0.0329831 -0.05442451 0.101557605 0.05882882 -0.039403692 -0.076258995 -0.088231675 0.054689743 0.11014063 -0.02405102 -0.08058446 -0.013904775 -0.09613863 -0.021896588 -0.0581568 0.037357908 -0.0038034157 0.04117467 -0.12677117 -0.0064897053 -0.089125864 -0.016062813 0.11908535 0.04723996 -0.061550327 -0.04905041 0.060749345 -0.059384394 -0.045307193 -0.01749211 -0.004165126 0.06904178 0.06465905 -0.025528703 -0.023060067 -0.051532477 0.09488721 -0.068827644 -0.08245007 -0.060906466 -0.07801549 0.09050698 -0.07357235 -0.03475609 -0.04841525 -0.02971594 -0.042717773 -0.032656133 0.021295335 0.011811589 0.0011799999 0.018730793 -0.07680251 0.019522557 0.046262134 -0.113217436 0.08912382 0.053750813 0.04196873 -0.027642032 0.04189693 0.0677964 0.0037110741 -0.035299934 -0.010095506 -0.013876317 0.06131044 0.06538261 -0.04396192 -0.0334413 0.029803136 -0.049974363 0.02300209 -0.008332355 -0.016702367 0.05209465 0.037299313 -0.07923237 0.01121517 0.04031386 0.04737541 -0.017242935 0.0032807498 0.008699648 0.0010560097 0.032460757 0.055492036 -0.018176347 0.052891277 0.112291634 0.011391021 0.08053006 -0.004631638 -0.034921557 -0.07071051 0.026632195 0.015814358 0.016094036 -0.12656482 0.003896012 -0.0065124906
provide 0.03597135 -0.009784894 0.014729131 0.037589654 0.07706542 -0.08089959 -0.00094462413 0.09397205 -0.02234971 0.04950497 -0.034299422 -0.043361656 0.0002156474 0.066122085 -0.019159298 -0.07316224 -0.036274035 0.043341357 0.032606773 -0.10509253 0.025897698 -0.04509403 -0.007074526 0.010601084 0.017811565 -0.057068817 -0.039304096 -0.06092557 -0.055002503 0.05712289 0.08643994 0.012335163 0.024071734 0.027682466 -0.027516859 0.04626382 0.046610508 -0.028653353 -0.015587289 -0.099702016 -0.02739409 0.00084750465 -0.03524917 0.023041472 0.12142803 -0.0063601406 -0.046271186 -0.019048955 0.04977536 0.020203132 0.015437615 -0.054267973 -0.067091145 -0.040449005 0.003962231 -0.012178557 0.012859968 -0.06844337 -0.08498553 -0.044049047 -0.03302137 -0.013486543 -0.027340103 -0.034355372 -0.11601155 0.0013589029 0.0004130627 0.07731672 -0.109443136 0.076580614 0.013755163 0.005425763 0.07964204 0.024569187 0.02254848 0.019949429 0.064684406 -0.061551556 -0.13914223 0.015344311 -0.019232528 -0.065360434 -0.083612114 0.12932338 -0.060044214 -0.002025564 -0.032345913 0.08373655 0.01861057 -0.01759734 0.042923417 0.062210206 0.0021716459 0.08150478 0.12698732 0.08780915 0.024668569 -0.014482974 0.04088564 0.032854676 -0.055427037 0.10648284 0.06053843 -0.037865877 -0.07355087 -0.08822118 0.056821305 0.11717319 -0.021068808 -0.08274925 -0.012471527 -0.10666023 -0.026777148 -0.057645556 0.042131916 -0.004287245 0.04375869 -0.13012984 -0.00034362293 -0.09035195 -0.015024592 0.12320692 0.05685482 -0.06413403 -0.053338435 0.062107764 -0.052203935 -0.046063296 -0.016988402 -0.0033218197 0.08063456 0.059107818 -0.017346745 -0.022608733 -0.054927547 0.10124682 -0.06590269 -0.08879789 -0.061158396 -0.08245628 0.09095273 -0.069280215 -0.042577803 -0.049975373 -0.031624265 -0.04156666 -0.027630785 0.012413068 0.01789427 -0.0046852664 0.020748863 -0.0743258 0.015286034 0.050878037 -0.1168927 0.088958256 0.059858076 0.04188218 -0.021065857 0.04212313 0.07201948 0.009881724 -0.03807075 -0.007897341 -0.020799452 0.061735295 0.0589421 -0.04822705 -0.030216703 0.030831363 -0.059972584 0.01644056 -0.0170667 -0.015845636 0.05014986 0.03618177 -0.081923984 0.0050099962 0.034187146 0.053890653 -0.015918234 -1.682108e-05 0.011888997 -0.0016734616 0.034837678 0.062269144 -0.022121781 0.052180238 0.11279571 0.010892603 0.080382526 -0.012152579 -0.031430516 -0.07479254 0.034137983 0.014770416 0.016274417 -0.1276381 0.0055789724 -0.015676284
& 0.025906155 -0.0075355447 0.011479617 0.027676435 0.064801656 -0.06855576 0.0031480053 0.08334678 -0.012419795 0.03475332 -0.025492577 -0.038037594 0.001534776 0.059332993 -0.022694625 -0.06298449 -0.025797525 0.035534047 0.026491357 -0.09329056 0.028041223 -0.04569846 -0.0041206134 0.010173969 0.018248187 -0.04908239 -0.029322078 -0.04950953 -0.051760633 0.044758502 0.07387895 0.015474439 0.01520294 0.023821944 -0.024323463 0.04063898 0.046942413 -0.028541785 -0.01779462 -0.08547769 -0.029201968 0.0021253456 -0.02798345 0.016507043 0.10992342 -0.0074316952 -0.038087618 -0.01644568 0.04748836 0.018926239 0.010775121 -0.048360415 -0.057474177 -0.03319122 0.0013709317 -0.012959696 0.014071453 -0.065269515 -0.075750634 -0.03854511 -0.02564432 -0.0121725425 -0.02107201 -0.029187154 -0.1033142 0.0073937364 0.0012051968 0.06677132 -0.09572287 0.067342214 0.002698839 0.002804504 0.06478756 0.020640621 0.018192643 0.020951519 0.050026584 -0.051696755 -0.12029304 0.01646555 -0.014890466 -0.05538449 -0.07694821 0.11731167 -0.048383925 0.0054124924 -0.022669852 0.06445756 0.015447998 -0.0111591825 0.037116516 0.054453302 0.0050259484 0.07112446 0.10896522 0.078613184 0.018524569 -0.015302871 0.037231155 0.028713472 -0.050249882 0.09171528 0.051437758 -0.03481152 -0.064715624 -0.08236511 0.049101546 0.09523568 -0.022646748 -0.06969516 -0.008766023 -0.087557666 -0.01914072 -0.053281832 0.040132772 -0.008656505 0.036732137 -0.10618617 -0.0014439408 -0.07471622 -0.012090719 0.103786655 0.04934588 -0.050061736 -0.043590795 0.050295256 -0.047161184 -0.048452497 -0.008701275 -0.004617646 0.06961072 0.05585722 -0.019291066 -0.018724438 -0.04734939 0.0900715 -0.0577781 -0.071300134 -0.058515746 -0.072852276 0.08562946 -0.061014418 -0.036945254 -0.049850497 -0.03321672 -0.04048699 -0.031734888 0.015357471 0.015846692 -0.0055842157 0.017800111 -0.07267506 0.014437496 0.04138422 -0.10369754 0.0781543 0.043606 0.029050842 -0.02055041 0.036362756 0.06778206 0.011714242 -0.032090794 -0.013222689 -0.01175124 0.0545336 0.056340847 -0.044060465 -0.03116539 0.024676688 -0.052764285 0.021264277 -0.012197899 -0.013925729 0.0418256 0.037507515 -0.069558635 0.011472924 0.029586697 0.041027382 -0.0121412 -0.007140199 0.0013632468 0.0005445201 0.020595947 0.053304326 -0.017937109 0.040797513 0.10199813 0.01157819 0.072128564 -0.0055511775 -0.03088978 -0.06227368 0.029430808 0.009211399 0.017935192 -0.110056005 -0.0008762088 -0.0114703635
analyze 0.030937234 -0.015240409 0.013664255 0.025877232 0.0668859 -0.07289949 -0.0037165072 0.080294944 -0.010829598 0.040484868 -0.028873231 -0.039396945 -0.00037647804 0.05550041 -0.022574082 -0.059953514 -0.033492822 0.030810261 0.020111399 -0.086538106 0.026237816 -0.038305867 -0.000793504 0.011167812 0.015244748 -0.043087166 -0.033055976 -0.04746379 -0.047096275 0.049079318 0.07379836 0.011398465 0.018660327 0.023395041 -0.029362042 0.040361203 0.041091565 -0.022354202 -0.020182142 -0.07964456 -0.027320482 0.003349892 -0.031713717 0.017814156 0.10654124 -0.012060184 -0.03515052 -0.023009216 0.048424397 0.021165352 0.008420432 -0.05138746 -0.057726737 -0.030102048 0.006079543 -0.0076419716 0.015646128 -0.06446906 -0.07489766 -0.037087068 -0.031189805 -0.017333766 -0.023779405 -0.028271584 -0.10088932 0.0042901845 -9.702572e-05 0.06106496 -0.08716294 0.06743463 0.002959857 0.0019198233 0.06322848 0.023942487 0.01520272 0.023025118 0.05508541 -0.05446563 -0.119808316 0.014207987 -0.011029762 -0.0600102 -0.072916076 0.113919616 -0.05598858 0.002565186 -0.030367233 0.07279439 0.009501266 -0.011247058 0.034116857 0.052047387 0.004553578 0.06867384 0.10656299 0.074072435 0.020139588 -0.006841674 0.030115562 0.027259257 -0.05268165 0.093349546 0.051156636 -0.0343076 -0.061628584 -0.07990144 0.04922559 0.10134513 -0.015983587 -0.07289674 -0.0083099725 -0.086033545 -0.013832629 -0.049299423 0.03436573 -0.009300748 0.03509763 -0.10859848 -0.0005427297 -0.077993006 -0.010180388 0.09853061 0.042448543 -0.059387423 -0.03882895 0.053703893 -0.049756866 -0.038963597 -0.01285483 -0.011400047 0.060620956 0.0521728 -0.022449622 -0.015036674 -0.04204562 0.085544504 -0.060522478 -0.076279104 -0.052021954 -0.070501335 0.0796532 -0.06477833 -0.035656385 -0.04928408 -0.028762799 -0.044046015 -0.023118326 0.010746443 0.0104796095 -0.00031741604 0.01396664 -0.0649514 0.013346026 0.041973803 -0.09322145 0.080622956 0.047028057 0.038076144 -0.021240696 0.037572667 0.06423531 0.002671814 -0.027726566 -0.014571404 -0.016567333 0.054747146 0.05143691 -0.044269428 -0.026338141 0.030598495 -0.04455712 0.013398854 -0.0067305034 -0.014047317 0.042267174 0.030858543 -0.066411436 0.0015047978 0.030083297 0.04992084 -0.017029237 -0.0054861777 0.0036212867 -0.0075488365 0.02625192 0.052738864 -0.019681634 0.04211032 0.104358666 0.0049448875 0.06378296 -0.012089619 -0.022317022 -0.061663073 0.022069344 0.008372219 0.018013725 -0.10832013 -0.0009953325 -0.008279722
25 0.027788829 -0.0068520824 0.016594242 0.028564584 0.06462127 -0.074634686 -0.0054902113 0.08694105 -0.014537808 0.044648383 -0.03450139 -0.04553568 0.00071935233 0.06559811 -0.017024033 -0.066121325 -0.036118083 0.04075415 0.025700076 -0.09517386 0.023976393 -0.04735552 -0.0034669419 0.01392876 0.0101311905 -0.051476363 -0.03345907 -0.053518184 -0.047762275 0.049645875 0.08217434 0.008833738 0.012031605 0.029686667 -0.026400708 0.03547831 0.04849771 -0.020714406 -0.015402142 -0.09217712 -0.029533578 0.00667146 -0.037502564 0.015222799 0.1072536 -0.0052124904 -0.044254884 -0.020901073 0.051473472 0.020978631 0.0065408153 -0.05021402 -0.055079382 -0.042757053 0.0043323943 -0.0057178866 0.014649553 -0.06919741 -0.07869444 -0.039884806 -0.03273705 -0.0145488605 -0.028053056 -0.027509382 -0.10971745 1.5730597e-05 -0.0006758885 0.07134121 -0.09808995 0.07666071 0.009446843 -0.0032424626 0.06712782 0.020817192 0.015451461 0.01804875 0.06155483 -0.053083204 -0.12807329 0.021952173 -0.017670708 -0.06733005 -0.07871851 0.12708119 -0.058775198 -0.0009929386 -0.028806182 0.07496468 0.01672549 -0.020629376 0.033157263 0.056057163 0.007690878 0.07527409 0.11544523 0.07856543 0.02117811 -0.0093375975 0.035662387 0.0368708 -0.05281897 0.10101237 0.05415494 -0.033082426 -0.06766241 -0.08579711 0.055889178 0.10697136 -0.018919626 -0.07708755 -0.0051916847 -0.09349742 -0.022156622 -0.049083706 0.04012842 -0.0033253804 0.04167198 -0.116316006 -0.0024913803 -0.08398235 -0.018392732 0.10892184 0.04749781 -0.057187416 -0.046024088 0.056206893 -0.05064692 -0.050456636 -0.009726214 -0.0029788387 0.073748805 0.059385274 -0.019849844 -0.019265661 -0.051421344 0.08829446 -0.063695274 -0.078182735 -0.057472877 -0.075059764 0.08951547 -0.06878522 -0.033171568 -0.049629617 -0.035348695 -0.042056035 -0.029289264 0.015197639 0.013344547 0.0040959297 0.014479057 -0.07059163 0.015512445 0.050280396 -0.10287368 0.08693193 0.04917511 0.03419104 -0.025447372 0.035832927 0.07071518 0.0032174776 -0.029410407 -0.007734056 -0.0129275 0.053267702 0.05922592 -0.04997928 -0.030273324 0.03298163 -0.049614485 0.015465434 -0.012066407 -0.024304178 0.048288368 0.036677048 -0.07521683 0.010177094 0.03214263 0.051131427 -0.013931811 -0.0007816613 0.0059262007 -0.00707352 0.024284016 0.05364126 -0.02681938 0.052083872 0.10881382 0.011275522 0.07639387 -0.009427592 -0.028700298 -0.06449477 0.031221675 0.015411152 0.012522503 -0.11710002 -0.002624645 -0.007019154
Learn 0.0339144 -0.0074525177 0.016130937 0.025048422 0.06944464 -0.078235194 0.00064653927 0.08276101 -0.012320893 0.03672645 -0.02772412 -0.04695383 0.004317357 0.064995855 -0.026222615 -0.058862522 -0.036261797 0.040193357 0.020502666 -0.09748896 0.0222761 -0.042073876 -0.003488432 0.0098560015 0.009142704 -0.042511407 -0.030966284 -0.053429488 -0.051554527 0.05255644 0.0832087 0.0075047426 0.018868249 0.024845853 -0.02512133 0.043797217 0.04308192 -0.02390365 -0.015217552 -0.09147428 -0.027339974 0.0047022547 -0.03813623 0.016736528 0.113321535 -0.0065480373 -0.033759907 -0.022186564 0.050290994 0.015740164 0.014030528 -0.058270264 -0.05631062 -0.03281924 0.0003082447 -0.0060500386 0.0063403514 -0.0661386 -0.078407906 -0.03932209 -0.024534382 -0.019544696 -0.025280097 -0.021895006 -0.10006042 0.004762932 0.0050969 0.06383456 -0.097437754 0.07183308 0.0068532466 0.00543548 0.07444325 0.018809307 0.015626347 0.02572154 0.052291755 -0.059471656 -0.12197083 0.014563022 -0.016182637 -0.0613704 -0.08096638 0.11996423 -0.057026975 -0.000873058 -0.026198559 0.072969325 0.013130294 -0.011794235 0.03696726 0.05942707 0.008042027 0.07426327 0.11628719 0.074897185 0.02201828 -0.0132202385 0.03781192 0.029866112 -0.052829657 0.09864591 0.05359147 -0.03167476 -0.067799665 -0.07973921 0.050149385 0.097181395 -0.016555168 -0.07144828 -0.015045238 -0.09679674 -0.018746518 -0.050105613 0.034135606 -0.0026937842 0.034705415 -0.116159976 0.0021194604 -0.08000632 -0.016141888 0.11101177 0.050821826 -0.059956312 -0.049315285 0.053968694 -0.047062855 -0.04716882 -0.012048625 -0.0072907046 0.07103871 0.056459866 -0.016465008 -0.014856205 -0.05077538 0.09199886 -0.06745907 -0.08116357 -0.055222973 -0.07035354 0.08813144 -0.07018061 -0.032268878 -0.051183898 -0.035481382 -0.041504875 -0.030370388 0.01708544 0.012160705 -0.0039441176 0.022058815 -0.07243725 0.019914605 0.042725705 -0.102684006 0.08564381 0.053089857 0.03464998 -0.02724948 0.03541667 0.06838926 0.010531496 -0.033552147 -0.008421271 -0.012124115 0.04956829 0.05551197 -0.043670624 -0.032274727 0.025505666 -0.04771818 0.01580157 -0.013163526 -0.017867705 0.051868256 0.03730521 -0.07248735 0.005392659 0.03782769 0.047699515 -0.019205566 -0.0058270823 0.003446945 0.00074203894 0.028011873 0.048812333 -0.017517887 0.04507848 0.10462501 0.008477918 0.07137283 -0.007182192 -0.028190216 -0.0658138 0.025194203 0.012523685 0.012375542 -0.11375971 0.006103321 -0.009032987
as 0.03890196 -0.010980952 0.016008748 0.03573106 0.08032858 -0.08366346 -0.0047228457 0.10079714 -0.021901375 0.046983685 -0.038948175 -0.056834493 0.0020318846 0.07408228 -0.024385476 -0.07568142 -0.040012177 0.046466194 0.033682343 -0.1066095 0.030803423 -0.0580689 0.001959583 0.010452391 0.016966932 -0.05372881 -0.03257674 -0.06041234 -0.06099977 0.056787215 0.09705418 0.014387303 0.017848337 0.037685208 -0.028788202 0.043372788 0.05549408 -0.03194713 -0.022954213 -0.10128306 -0.03671153 0.00683014 -0.041799422 0.016895272 0.12252581 -0.007401803 -0.042389847 -0.020947458 0.055435963 0.02599032 0.013139829 -0.06585364 -0.061313696 -0.046874557 0.005519941 -0.011426471 0.012294977 -0.0780433 -0.08953688 -0.04616544 -0.0317438 -0.017825644 -0.028416742 -0.033951715 -0.12655295 -0.00023291525 -0.0023969815 0.08102029 -0.11568673 0.087423004 0.010436292 -0.00083148957 0.079264544 0.02169245 0.015584555 0.02472967 0.06461863 -0.058943734 -0.13953532 0.02098306 -0.014160981 -0.07585471 -0.09494133 0.14157589 -0.06677436 -0.0012910946 -0.0307439 0.07886725 0.015651144 -0.017430361 0.043258302 0.06388127 0.0067178076 0.08913379 0.13136572 0.088913575 0.022126969 -0.016664607 0.039787997 0.036690135 -0.06634655 0.110185035 0.061920024 -0.041723963 -0.080525525 -0.0944446 0.06230384 0.121159844 -0.019241247 -0.08348423 -0.0087114 -0.10803716 -0.021656524 -0.05812943 0.047479227 -0.012569567 0.047017284 -0.13207509 0.0041112714 -0.095741585 -0.011388946 0.12760437 0.052607406 -0.062032264 -0.05530398 0.067375615 -0.0652288 -0.056845266 -0.012689167 -0.007972167 0.076677345 0.06607359 -0.026234563 -0.019782357 -0.049882423 0.10290579 -0.07034009 -0.091033295 -0.066166155 -0.08262267 0.094810724 -0.07591356 -0.045184515 -0.050961867 -0.041591015 -0.044876028 -0.03235149 0.022741633 0.01993253 0.004856949 0.022314303 -0.08228911 0.020567633 0.05122252 -0.12136899 0.100305974 0.062644735 0.04384172 -0.02491315 0.043687034 0.075930655 0.009641948 -0.03757218 -0.01455541 -0.022985568 0.06532352 0.061249137 -0.046922497 -0.038501818 0.032006305 -0.06331998 0.024728894 -0.0094767725 -0.021797357 0.0537413 0.03746429 -0.0852434 0.014038989 0.033542655 0.0577137 -0.01726837 0.0026539257 0.009066009 -0.0012677106 0.032708123 0.0635402 -0.029771449 0.051772296 0.12200159 0.0133928945 0.08456812 -0.009213473 -0.034860794 -0.07222481 0.033526454 0.020145938 0.021466611 -0.13080235 0.0022897818 -0.01689505
